1 8 1500 64

78 53 -27 29 -115 -16 45 125 109 -64 -9 72 -59 65 -119 103 -88 8 102 31 16 -100 83 114 -68 85 -54 105 0 -72 6 -23 -89 9 78 106 124 62 -118 -17 -63 -44 113 50 2 43 28 23 -84 126 58 6 -19 14 -46 -123 42 -116 -72 -56 -33 -73 51 106 
102 85 -90 32 -116 0 -76 55 112 -6 -105 -29 -16 70 39 83 -29 78 36 -128 -52 106 76 14 52 53 34 90 60 21 -123 -79 -124 -96 -48 -27 56 -74 94 22 113 -81 106 -62 37 -16 102 -68 -48 53 -43 44 -98 -32 -113 113 64 -47 -33 126 -90 90 -115 6 
64 118 -18 116 -6 1 25 22 -16 6 5 111 -122 -40 -96 79 124 -5 -89 -18 9 91 47 67 113 65 38 -36 83 -108 -54 110 -85 -99 -6 -1 -44 -37 -70 -10 52 79 -60 -107 91 -122 -40 -120 69 -12 -115 -9 -109 -90 25 77 83 41 25 0 122 52 -121 16 
42 54 4 -97 96 -128 -115 -86 7 -102 40 -127 37 -96 27 -64 62 -49 48 91 -3 -39 -88 17 -115 21 101 -99 110 51 -71 -105 68 -120 20 -33 -120 32 -96 51 -33 -82 94 -116 84 4 120 56 93 -16 67 -71 36 -37 -92 21 -13 15 35 -35 -31 20 -86 103 
51 126 121 -109 -1 -61 -1 76 -115 -106 -88 126 72 -93 80 87 71 -12 77 -42 64 -99 -83 101 -86 -43 92 -33 -107 -5 -61 -70 39 -90 -45 33 -103 -93 -34 67 -5 91 -120 89 38 53 -61 -37 -11 82 -78 -36 -24 -126 37 -21 -92 124 -81 -73 38 9 -93 81 
-17 -24 40 -10 94 51 26 -97 -7 54 -87 80 110 -58 -112 -107 -14 -92 40 126 104 -42 50 7 -41 -11 89 -63 -114 1 -106 54 30 7 -109 -118 -89 41 6 20 46 90 -65 -123 -24 10 21 -20 57 -69 -21 -94 19 -31 -97 99 -114 62 -128 -54 93 39 42 65 
37 -49 -45 -18 0 47 -108 -24 -95 91 89 17 22 -99 -123 -70 -53 67 -126 128 30 89 -59 -80 -90 -11 -117 -52 -7 -97 0 -39 31 71 -15 -13 -13 120 51 -28 -62 113 85 -123 -105 11 -93 -77 110 123 72 -57 58 65 66 -120 -63 12 33 -87 -19 126 -93 39 
-77 -52 77 -87 77 100 42 -77 -16 -66 -48 123 -77 106 -20 9 -60 -120 77 -92 116 -81 37 -99 -44 37 -47 -116 -56 -123 -24 -48 81 -86 89 -51 -16 -104 94 -91 -13 -128 -122 -37 -96 123 -118 3 -25 90 88 -11 -27 -120 109 -117 56 19 119 -86 -114 -109 -8 -60 
23 -100 -83 127 16 83 -47 76 -123 -113 89 64 -124 -66 -95 99 -74 -77 -128 -79 -29 -42 77 113 -96 45 -21 57 34 -119 41 12 -38 -54 -60 102 68 22 -16 128 -22 -74 -52 -18 -112 -100 105 100 74 41 30 56 30 78 8 -117 102 -8 -48 117 -1 32 -61 2 
123 -28 -81 55 52 31 -44 128 -79 6 -124 -7 -9 44 23 19 -17 -12 -12 -120 67 10 -27 -76 -25 58 -48 109 -111 40 1 8 -73 -30 69 -107 -14 38 -22 -11 -34 14 -83 -9 -14 -19 -31 93 84 -106 32 19 -73 53 -54 -69 35 -73 41 -80 90 121 -50 -29 
91 9 97 44 107 -49 -84 -66 -104 -1 -70 -64 -116 -60 -18 -70 -2 -18 124 42 72 74 -34 -121 118 15 2 10 29 -95 5 74 120 36 -114 -75 95 -24 -11 -3 -43 37 77 80 -32 -116 31 63 125 81 -106 -16 -45 104 -16 112 -112 65 -100 -75 -121 28 -23 -21 
-104 71 116 124 -109 17 112 -109 78 63 70 30 -48 62 -60 57 -9 35 96 -13 112 -98 -120 82 -108 82 -51 -40 39 -115 107 12 32 -62 63 -87 66 -65 62 -22 61 89 105 -51 -13 37 -105 -31 -14 -51 41 -75 -95 -17 4 128 -90 77 108 -32 37 -101 19 109 
31 -5 -72 45 102 -72 38 80 -57 -50 -93 -101 -37 -27 -93 -32 -101 -57 -99 67 -117 -109 79 104 -17 72 -120 -112 -7 4 111 99 -31 63 -119 -63 96 73 56 70 -29 115 -75 -94 -53 -6 -33 81 -11 -1 -99 -9 -124 -89 54 95 -14 20 -61 -40 11 96 -102 -121 
-40 19 81 16 10 78 127 -91 -94 31 69 -114 -125 95 101 83 23 71 24 -78 -109 126 -32 -79 -17 38 57 -109 -32 -31 96 36 -93 -103 80 74 125 -88 15 -102 -95 -113 -70 -73 -119 78 111 112 65 42 -99 39 -48 -8 -22 -84 118 -54 -38 9 111 -31 42 -37 
-28 -18 -7 -8 60 106 125 -123 -59 62 -2 -37 -116 -86 -24 -90 -124 15 -95 106 -21 -102 -40 -96 40 128 -57 -11 100 -46 82 -22 -67 101 -56 38 -15 9 83 98 68 23 -65 -48 90 111 58 -5 -29 95 17 80 -78 11 -84 -48 -95 116 82 60 -63 -5 -34 8 
25 -34 -110 38 -88 -34 109 16 -21 98 -79 113 109 -75 -27 -97 -65 -108 -1 -20 -101 -12 126 -80 65 -25 -102 -36 -76 -103 -36 59 -26 120 -69 -72 -93 -52 -71 -3 112 -65 -2 30 -5 -111 -123 -72 -96 -91 -11 17 -87 26 -52 -114 50 -20 22 28 68 110 -64 118 
-88 -32 58 -60 -38 17 77 84 115 -31 48 70 27 -71 -20 49 79 58 -55 108 -104 61 -103 73 -109 68 83 38 -83 1 43 -67 98 68 21 -44 109 92 -65 49 -15 -29 112 -47 120 -74 7 10 123 25 97 93 -25 -47 34 1 -67 113 117 -79 60 -21 90 -80 
90 -86 34 -4 -5 -1 -23 104 -12 126 124 106 -43 -64 -126 -58 -76 -36 14 113 -94 -13 -105 76 69 93 125 5 -105 55 119 -110 -17 4 -108 22 72 -54 108 103 93 19 104 -33 33 -60 -79 43 -82 -82 4 -6 -7 110 -61 -127 -10 -6 125 7 91 -126 -66 -30 
-46 123 -112 106 -26 49 -95 -72 -3 8 -113 -56 11 50 -90 101 -16 -80 -66 88 89 -55 -40 -99 -50 115 -70 -38 96 36 88 -56 -28 83 113 110 107 87 47 120 -125 65 -63 -84 105 -58 -91 111 28 17 1 77 -116 11 7 60 88 -31 -27 -56 97 111 66 -44 
80 -47 86 108 94 83 -49 128 101 3 124 -45 65 21 14 64 -41 -101 67 -125 4 122 -70 -2 -102 -9 44 -91 76 13 -110 37 48 107 -53 128 94 -28 56 84 74 6 -45 -99 10 -101 -52 97 75 -123 -50 -10 -27 -95 67 -92 128 -9 68 -1 -77 -38 -56 108 
-60 -68 21 -127 76 38 -4 -3 -42 120 -27 -50 56 23 82 -28 41 -8 68 -108 -57 -77 -55 102 58 38 68 4 92 51 -15 74 64 42 -18 34 -69 5 32 -87 41 9 -106 125 -50 126 -92 -89 -96 -117 27 -12 13 17 -109 -100 -45 -117 75 98 5 36 76 -68 
20 -90 -62 -31 -99 125 37 60 -34 -90 -103 28 -92 10 42 41 17 122 9 8 113 105 -123 24 72 -1 -88 -81 -94 -5 -12 -14 -18 37 5 -110 109 104 4 43 99 -115 16 91 62 -76 -39 106 105 19 -35 -82 108 -48 -113 122 -47 -47 -71 29 -116 36 96 92 
-74 -119 -111 -7 62 -40 -101 -3 -121 -125 119 -27 47 -79 -11 -36 62 59 0 11 70 -8 -19 40 73 61 -45 -116 34 -125 -21 -62 -90 -29 -97 -79 64 -30 -54 -7 -56 -125 60 -86 -46 -18 -32 95 -81 -26 70 54 59 -36 19 -70 41 -5 -79 -53 -33 38 -74 -107 
-39 -47 -28 -113 -68 37 49 -19 -33 22 -49 -81 81 -34 -42 -63 -32 -13 96 -111 -124 122 18 24 -50 65 -34 -113 6 124 33 -105 80 14 -98 -100 -96 52 -21 -74 -23 -54 34 4 -118 73 -106 -64 107 -8 -9 21 40 -99 -31 -29 -28 76 -42 78 -95 69 15 -25 
-87 25 -35 -117 47 37 22 125 81 -14 66 -21 -12 28 -127 101 -128 -83 49 -56 87 -98 51 67 -32 122 -79 19 -61 10 76 96 55 -28 -102 120 20 -97 39 -67 -101 87 70 -96 -109 -86 -92 90 4 83 7 8 -77 -59 116 24 -124 122 98 71 -6 -22 -31 2 
-99 97 -101 29 20 125 40 -96 14 -92 -4 -55 37 115 -6 121 -124 -80 -59 7 58 -128 83 -90 -108 1 -124 54 -95 14 61 120 44 -102 -37 -11 42 -67 -109 56 35 72 60 -126 -122 112 -128 27 -40 -107 14 18 -17 -6 -65 -13 -22 95 29 59 78 114 -33 -39 
128 -101 -64 -68 -40 -4 94 3 82 8 70 67 87 52 -104 100 -122 -37 -114 -65 -89 -19 -66 -11 128 -93 38 98 -61 -8 26 46 119 97 -8 -47 -83 66 118 -41 19 -120 37 72 79 -57 -82 99 30 63 -6 -127 41 -11 -35 94 80 120 19 38 -114 -102 119 -36 
-99 128 -79 66 -87 -100 95 -9 11 107 -99 -85 37 105 -81 -128 -99 -68 -81 125 -50 44 -1 78 -74 -125 -87 128 78 22 -9 32 48 56 -119 -85 -64 21 -86 91 67 -95 -55 -26 -16 8 14 11 -27 -24 15 33 -101 -3 65 -5 -57 -19 100 -55 7 -53 107 -99 
69 -115 -67 -92 39 -2 -3 48 -67 18 -115 106 11 125 -98 -14 73 -125 55 -11 -6 63 -125 -91 -33 -44 37 -120 -44 -6 6 2 -48 -19 73 51 -12 16 10 -25 -59 66 10 43 16 -9 -45 -34 87 -105 83 36 -9 106 -36 88 0 55 -72 67 -23 27 -97 60 
-34 115 -50 8 -72 124 -32 26 -20 119 79 -83 -112 60 -51 39 -12 -127 -117 -7 27 5 87 -45 35 115 -58 12 20 -9 30 -79 -24 44 -69 89 93 80 61 126 33 79 -24 35 -34 124 -33 39 86 87 100 -34 66 111 6 -52 -118 -61 76 7 62 -81 46 -123 
9 -2 88 -57 -120 60 -5 123 71 33 118 -46 94 -36 113 34 93 -98 -123 66 7 -125 -6 114 -66 -25 74 -114 28 91 107 109 117 -8 5 -116 58 -115 61 120 -75 -102 -56 14 -62 28 66 42 -78 -53 -105 11 -108 -17 19 -10 25 101 120 95 -32 -3 54 121 
121 30 62 15 123 95 97 -61 -36 -38 -56 0 41 -13 -92 122 67 -74 -99 -4 -119 52 105 -34 126 83 9 128 -88 37 -60 -95 64 -30 63 106 121 31 96 -86 87 29 -3 -35 -79 36 53 98 117 45 22 17 -73 83 16 19 67 -38 58 30 -41 107 111 92 
-50 63 36 87 -118 -41 74 113 -98 -70 48 -121 24 -120 -113 22 100 20 -116 -121 51 19 -37 -80 -59 42 -15 43 -1 18 126 -9 1 106 19 95 -56 -93 -21 112 -87 42 33 -102 -108 49 48 108 -2 58 23 52 -92 -96 -24 43 93 62 -58 -120 128 70 79 96 
107 95 10 94 106 52 123 -44 -79 56 16 12 -53 -24 56 59 -36 44 -112 -73 -90 80 -4 51 76 -107 85 45 -121 116 -76 -52 -25 84 -107 -57 55 -126 5 116 128 67 101 -125 -82 -60 17 -96 81 -69 93 51 -55 41 -82 -40 28 34 94 93 -124 -2 -50 -95 
-110 128 -16 16 -31 94 -8 -6 10 -9 63 94 -71 -69 -37 18 16 74 124 -109 49 -81 32 52 54 50 109 -62 -94 9 0 54 -33 11 -69 -85 73 31 93 -5 52 -2 37 15 -22 116 63 3 32 54 52 -100 102 62 34 -73 -126 61 106 127 -45 -118 126 -53 
118 94 -42 125 66 -73 58 25 -35 92 -68 63 -102 71 -128 73 -14 -115 -24 3 -117 -20 91 -12 80 -105 -124 109 -111 -115 116 19 -42 -18 95 53 54 69 98 -91 3 -113 -11 62 108 -86 -122 -53 -41 -55 75 70 56 -109 -103 39 57 -88 -29 -52 71 -54 -55 -102 
-68 104 56 -80 -44 100 -5 -128 117 78 -86 -34 61 -28 -65 -97 -97 35 -101 45 126 45 87 59 120 -118 26 0 -18 6 -23 50 31 63 51 -120 80 -127 83 -105 125 16 14 -1 28 21 15 59 -33 10 45 37 72 -48 -82 7 -125 -43 -124 -3 98 8 51 83 
58 80 -94 -67 83 38 -114 -101 122 20 -125 92 86 51 -59 -94 26 -106 41 -43 -9 -98 45 -23 -72 -30 58 -44 -14 -64 70 -42 -81 61 59 -57 102 39 -68 31 52 -16 73 82 76 2 -41 28 47 62 83 -6 0 50 120 20 103 -13 96 15 80 -75 88 79 
-121 5 61 -7 121 22 93 15 102 -3 121 -60 -94 11 -53 -94 -127 58 87 113 29 -71 -69 -11 114 5 119 -9 -92 -89 -119 -85 -100 28 70 25 94 34 -62 -123 124 -73 -119 -85 -2 -2 65 -78 -45 56 13 29 -12 75 -4 -86 74 -26 -26 -80 -75 -127 -107 -4 
-2 66 77 40 10 83 -70 19 -9 -49 101 11 109 65 -120 8 79 97 98 65 -97 -91 -99 17 11 -1 121 65 -46 94 43 92 68 84 -110 -67 -42 114 37 17 -3 -42 -84 -85 99 -39 -5 80 115 24 23 68 -10 104 103 57 62 -94 -16 -103 -40 18 15 28 
19 -6 -119 126 123 48 98 -119 108 -51 52 -46 58 -100 -86 73 -47 119 74 -87 42 35 -61 71 48 -114 -30 97 10 49 -18 119 -23 -37 20 99 -112 6 -31 -31 94 -57 53 9 114 -7 -12 -60 63 -6 -81 -19 71 113 87 -101 -38 67 21 -40 106 -39 117 65 
-61 52 -3 -18 -96 17 123 27 84 121 -128 -113 116 87 81 -55 104 125 -81 117 112 49 -100 -11 -83 -22 106 29 -59 -8 -78 -96 76 14 -32 60 65 87 107 -2 -82 -83 -5 -29 119 -59 -88 46 22 -82 105 -38 2 51 -9 0 74 -48 -53 -121 73 -53 61 -113 
-127 -24 119 53 -118 -70 24 -7 -74 75 123 101 79 -61 -120 -21 25 58 1 -97 -80 -97 17 83 9 -107 -24 -88 -28 67 -127 -21 -28 -66 94 -53 -10 -16 109 -86 23 -63 -122 -92 109 27 63 -35 77 13 2 -97 78 99 2 23 116 27 66 76 -86 64 -115 48 
-121 38 -94 -46 -47 104 -19 -16 17 -36 -21 77 3 34 -41 1 -76 39 94 56 -117 -111 -104 62 -74 84 -57 -11 81 7 -118 71 50 -24 64 -27 -93 -114 115 64 -47 -120 61 -89 -26 -80 -111 -41 -85 -23 80 55 -49 -74 84 -8 -90 -119 -36 42 110 34 118 -40 
107 -62 -77 -67 -109 -86 -96 33 -84 51 114 -15 -71 -94 -12 -22 54 118 -82 -23 48 -72 94 96 -29 -18 -54 54 81 -70 -123 12 -92 -37 27 18 -52 81 6 6 -38 -128 57 -79 90 105 -95 85 43 90 119 104 -52 83 -17 40 106 -85 53 -50 90 -115 6 67 
25 -29 -5 -88 -75 61 120 87 43 122 32 -92 -58 -2 -40 77 94 -47 19 -125 -69 -39 89 -58 -122 -37 40 -90 -75 99 92 -127 -124 -83 -100 -45 73 -58 -38 35 -50 10 -42 -27 -38 71 -69 27 -112 111 31 -46 86 36 -100 -100 -27 95 -126 -51 41 44 -91 32 
47 3 67 -110 -29 -22 80 -92 58 -8 106 28 -27 -2 -75 52 -55 -103 17 36 -44 -39 -72 96 -71 75 108 -65 36 109 -68 71 101 -76 98 -4 -95 -46 114 -46 -12 -107 29 -85 -35 -32 -82 64 -61 -49 9 -20 -44 8 -39 -99 -44 87 -74 -23 -76 -33 -69 88 
11 36 -103 -118 -58 43 -38 -55 -97 -117 -104 -49 37 -6 -96 -17 -11 64 -62 117 -13 30 -42 -2 99 87 75 116 56 105 -126 93 -72 -5 62 -118 -10 -110 -18 66 24 64 124 84 -93 -70 91 13 4 7 20 106 78 119 -100 107 75 86 -97 -34 52 32 -113 -34 
-13 68 65 5 20 68 -16 56 -47 -6 -120 -21 37 -97 19 127 -58 20 122 -107 5 -93 66 63 13 12 42 -23 -55 -64 66 -66 123 -82 -83 -89 97 -21 93 128 46 7 -56 123 92 41 34 -21 -86 94 59 -7 -54 44 112 -29 76 -10 -100 86 -51 18 40 89 
-3 100 106 81 117 120 118 100 -7 76 99 -88 76 -90 91 -25 123 -54 33 -53 67 -13 96 97 66 87 -67 107 59 48 -8 -94 49 -116 -98 33 -45 -53 -118 18 6 64 -111 20 51 -93 97 -105 107 48 67 118 115 -39 -128 -108 -28 64 1 96 -67 -14 102 84 
-72 80 112 127 41 12 -66 56 -9 -27 -18 11 -55 23 96 5 33 -57 -69 119 -51 -113 -107 34 119 19 -65 -5 -36 2 65 -105 -67 -120 2 -111 59 109 61 47 -5 49 123 -103 100 44 -98 100 91 123 39 -63 -23 -58 -97 -3 50 128 35 -124 -60 -3 -107 38 
-17 54 -86 38 -61 -97 -58 69 90 -4 -105 -81 -84 -96 36 115 -88 -61 -43 -113 115 -47 78 -116 92 36 -79 -128 -14 29 106 115 -5 -89 93 -50 104 -68 -116 83 -9 -28 0 27 42 84 109 -28 -111 -49 37 -116 -116 103 81 -117 87 -41 114 38 128 -11 49 14 
28 -14 83 -52 -127 -7 -64 -51 -41 65 56 62 71 97 75 111 -44 30 -110 65 32 50 2 1 -74 -77 -2 30 -80 37 -128 -50 101 -89 -14 -48 110 -98 -67 -52 87 73 -120 106 -82 -54 6 57 2 -25 54 -120 38 -59 -95 38 17 -22 123 -1 -96 -20 -85 -40 
96 -31 1 58 26 -103 -124 119 3 2 -6 -15 -6 79 91 58 5 -11 107 -40 -55 -71 -103 53 125 107 -108 123 106 86 -32 44 125 -128 -101 124 88 123 60 123 56 -22 28 -83 -75 14 109 74 -58 -50 100 -16 -77 -112 -4 -67 73 28 21 95 -14 106 -117 -102 
-25 55 2 -39 -10 57 -64 -76 97 102 46 109 -75 -101 -96 103 -36 -32 -88 78 -80 111 -31 -41 81 71 -83 55 -95 13 15 36 81 21 95 21 -73 96 -15 -98 -30 39 41 -63 -105 106 112 104 -87 109 52 44 -34 29 57 -61 79 92 -19 100 86 -72 32 38 
36 -45 -51 113 96 110 -46 55 -10 122 0 51 57 52 -99 99 -33 26 6 -90 14 -19 -2 49 112 -91 122 -126 -61 36 -96 73 37 -81 67 -81 32 64 69 95 -80 53 -121 126 -33 112 115 -59 40 -96 -89 -74 -87 -112 -90 40 30 -10 48 107 40 -73 -2 60 
-77 27 105 -100 109 121 31 -87 91 -117 42 -114 -46 -43 -45 95 -29 4 45 1 124 20 -63 -73 -118 -56 26 -123 1 -92 -95 -128 -101 -7 -7 -11 40 30 -66 -74 104 3 -104 9 121 -74 -20 39 82 118 105 -101 -71 -40 27 26 74 60 120 98 12 59 12 -80 
-23 -58 -103 15 101 40 25 118 125 -113 -97 -91 95 -90 40 100 9 91 -26 84 -78 -25 -10 -17 18 -67 -19 -74 113 -34 115 1 -79 30 -41 -79 98 -68 -51 -128 66 128 -41 12 42 -59 13 82 50 126 44 -10 111 95 121 127 -56 8 36 84 127 -10 68 17 
-122 -96 -1 -74 -13 -37 -29 -13 -72 88 -11 -110 -97 -71 54 -93 17 63 75 92 88 -22 23 122 90 -103 -37 -39 -96 -116 95 35 -30 -115 -69 -101 -37 9 46 61 69 -95 -98 109 -16 22 -36 -77 12 -94 -126 59 123 -37 4 -63 -71 -108 -117 -90 -40 -103 -121 -76 
-83 -72 -89 -24 127 -99 122 28 60 86 -11 76 91 -57 12 -52 117 -10 47 84 -18 62 -65 -64 -123 40 123 -68 127 -83 88 15 -4 -104 -71 96 105 -17 -69 -110 -43 -115 102 10 -50 -10 -67 13 -55 78 126 -7 111 39 67 68 -97 -15 -76 -21 25 -96 -77 89 
-57 48 105 -30 74 -32 -101 16 127 -27 -31 -64 -28 96 -29 105 -86 -96 3 80 -15 -97 45 -76 -128 -49 -94 59 -107 -111 43 -109 -40 28 -103 -71 -42 110 63 61 103 68 -121 47 105 42 36 -26 -94 -56 -85 108 74 30 28 116 -63 25 10 39 100 -99 39 -53 
-86 -24 120 84 62 -122 -92 117 -81 112 -54 -18 2 -70 -14 22 81 -22 -41 76 -11 20 -70 -52 -103 -34 -72 -126 113 -16 68 103 -54 23 -20 16 -30 -34 -10 47 -99 69 -103 -70 -107 -53 -100 -123 -116 62 -14 96 122 94 69 15 -75 -50 -95 107 -35 -124 48 77 
85 8 63 -58 82 -76 13 56 -11 -27 89 -125 -112 42 14 -91 -112 -111 57 -38 -85 72 -8 120 -43 88 -85 33 18 48 33 -99 -120 -128 79 -83 -119 110 66 103 19 -80 -127 -94 -30 1 93 75 -104 -29 14 14 101 -90 -94 -45 12 86 9 -44 15 116 -74 110 
-100 41 41 -7 -52 -40 26 -73 89 25 -16 21 25 33 68 -4 -39 55 100 108 81 51 -121 120 -68 -32 48 -6 -71 -15 84 -50 -15 -123 50 46 55 82 51 70 95 27 45 5 -54 -67 -118 -92 58 82 6 -1 -7 -40 -126 -95 33 -1 -65 39 -91 -122 -107 10 
25 73 20 -86 -97 68 80 112 55 57 103 9 -62 9 -127 76 64 0 17 -12 96 -106 84 41 -88 -92 83 7 19 -123 55 -122 -50 78 68 67 -15 -113 -121 -106 -97 -121 -104 -12 -119 99 -11 9 113 35 -94 -71 3 -33 -10 -86 32 52 -35 66 -81 -127 -22 -77 
-114 106 -106 -1 35 23 -1 -96 116 118 66 -110 -52 60 57 -125 63 4 -15 96 -73 -10 60 3 -120 -26 -127 54 -22 -61 48 118 -104 100 123 -69 107 1 18 0 111 107 -2 73 -73 91 -99 -72 -49 94 -125 -41 28 -92 48 -71 21 54 -97 74 47 110 -128 55 
-34 -34 -23 -114 -115 -71 39 120 -12 -44 108 -77 33 100 12 -106 48 -39 57 -19 -95 56 7 -82 57 -69 16 -50 -84 -65 126 67 108 105 38 33 -46 -3 -36 41 116 -125 54 35 -34 36 39 -92 -47 101 4 80 17 91 -32 85 103 122 -12 63 4 -1 78 -32 
-127 38 -44 122 88 60 43 37 60 -40 -122 99 -34 -86 -46 101 -63 -102 35 52 10 14 46 -43 -14 48 16 15 4 -37 -47 114 117 33 24 -32 -77 0 -110 -21 115 -23 75 -116 11 32 -126 -101 11 -24 -6 -16 104 9 30 -40 -78 -43 88 -3 5 106 93 -40 
-94 123 124 110 -65 59 -91 123 -9 0 -33 -80 -66 119 -87 56 104 89 48 14 -4 18 20 19 41 57 -102 40 -76 94 -9 55 -110 -73 -103 -20 106 73 -52 -52 47 5 80 -68 -92 92 12 -128 -57 -71 0 -113 -86 -97 119 -3 -93 -108 -102 -112 -34 -91 112 -49 
97 -87 100 -30 -16 -70 -105 -60 116 -15 20 -103 29 35 82 -93 -125 -47 113 -14 -111 120 44 18 -86 35 -1 -68 -16 111 -58 127 59 105 85 -58 -8 -13 -23 67 -83 34 -64 -78 -74 126 -91 -62 117 -44 31 -56 -119 27 97 -24 68 -38 57 0 -57 -6 66 115 
109 71 -108 -119 -4 65 -120 -13 -111 -41 -72 -74 -99 -27 72 -98 76 76 40 21 10 105 73 -21 108 76 127 -89 -45 -12 -13 15 -68 24 30 -71 112 64 116 -108 -5 37 36 120 76 -26 56 98 44 45 58 -113 -124 15 -81 55 -95 -8 -91 47 -108 51 69 -70 
74 45 72 96 -58 -3 96 99 -50 -8 93 30 16 -82 -9 31 36 25 112 12 -104 -15 98 103 -48 31 -11 96 51 13 117 69 7 11 -31 82 -3 -87 112 22 65 87 -23 -109 70 80 -89 -7 16 -89 88 -53 121 55 85 89 117 111 -24 -120 4 123 -37 84 
95 19 -116 83 84 27 119 -4 14 -123 -60 12 0 -11 -60 101 -95 -13 32 29 -28 -60 69 64 75 -121 -127 -60 -46 -101 -25 0 -69 110 124 29 107 -109 14 78 -1 -60 50 61 -34 -104 97 13 93 94 -27 -102 93 -92 107 3 -66 -94 5 104 -16 -34 54 84 
14 -7 -44 44 126 -55 -43 -44 23 115 50 -26 121 -25 -7 31 -94 -52 -32 -34 -57 28 32 7 25 -16 -8 40 -27 -81 -39 119 67 -40 -82 86 -58 -27 116 68 83 -89 -25 57 108 45 114 -24 -109 125 -71 -40 77 -64 86 -48 -76 117 -126 23 93 93 109 -61 
81 -116 -33 28 37 -112 91 -74 -14 104 59 -6 -53 14 -20 51 -94 -22 -24 -101 -101 24 36 -99 -50 11 -95 123 47 -53 -117 110 98 -102 -116 -92 -51 55 -35 -10 -62 113 -86 18 -85 -106 -47 -63 117 -127 -86 -54 117 26 113 -126 -49 74 124 -25 57 122 -126 -91 
-45 -84 -59 100 16 -53 -43 92 43 -49 -11 -93 36 115 70 13 -47 20 39 30 38 73 110 -18 -30 -113 -62 -81 -69 77 -41 -47 -14 -117 83 -114 46 99 27 76 -1 -72 0 59 -71 21 64 -69 118 -56 127 -89 128 -119 -50 16 116 -72 -124 -55 -67 -94 11 -45 
67 -52 -86 45 32 -119 -82 17 24 19 69 90 17 83 7 76 16 43 4 -92 -48 36 128 -28 -66 -27 119 -45 91 40 67 73 24 -35 -85 -77 119 -1 -126 -9 31 -63 -94 -106 91 -19 -69 100 -34 45 59 76 -117 -19 -49 -41 -53 16 24 75 -61 113 122 -112 
-105 -19 -112 -13 44 -94 -18 -28 114 -72 -108 78 24 110 45 -50 -64 61 61 -9 12 47 -102 50 100 51 -85 -77 79 5 97 26 68 128 4 -42 -33 102 98 -55 -3 108 -113 -28 86 11 59 12 -3 -125 5 -117 -97 24 3 95 -73 -64 39 15 -96 -48 8 82 
122 54 13 124 117 54 -88 -15 72 -122 29 86 100 58 -22 -49 55 95 115 -95 9 50 89 -51 75 -106 -94 -124 96 39 80 -17 -120 -37 19 19 -59 83 54 -26 70 97 -53 37 -56 -106 -127 -14 40 73 102 67 -104 75 -101 -80 40 28 -8 124 57 69 -115 3 
46 -125 -41 104 55 -42 -90 -95 -114 -7 72 121 -68 108 5 54 1 -92 63 61 99 72 -93 -33 59 -121 -68 10 3 86 85 -84 5 -32 80 -62 -51 -89 -103 56 34 71 -90 123 -3 118 21 -44 -99 -66 35 -96 111 20 106 -110 28 115 -10 85 3 -81 -71 -17 
63 40 78 -53 14 -82 6 -15 -127 -88 -107 -114 -83 97 -114 -113 93 65 -103 -125 1 57 -44 -53 38 -32 -119 -15 63 105 70 -85 54 -29 -52 -124 -93 73 50 -2 -33 33 75 -112 115 -39 32 -88 81 -11 92 -16 112 -41 -87 -3 123 3 106 30 -26 98 -5 -41 
111 19 -69 -75 -84 8 113 -34 101 -118 81 -99 -72 -66 -68 114 55 104 -3 61 -15 76 22 111 41 -31 -41 35 50 78 -37 -56 -6 -77 62 64 -25 -123 50 -62 -101 65 -27 21 71 -102 48 -107 -8 38 -8 -30 -113 34 -128 18 32 -37 62 100 108 -67 -63 -36 
3 26 91 5 -16 20 -61 127 10 -92 65 121 -72 90 90 89 -77 77 60 -7 65 -2 24 127 94 31 -119 3 -22 117 -73 -124 51 69 82 -66 -121 91 52 -14 125 49 -126 88 -115 -1 -99 21 87 27 17 -69 -34 117 71 -36 96 76 -107 82 54 -44 100 -86 
128 -97 105 86 124 73 -60 -84 4 79 -34 -101 -3 48 -106 65 -9 15 -11 68 15 63 89 -17 -86 -116 -108 43 47 -102 81 40 97 -19 -105 120 -76 41 125 -67 53 -125 39 -102 65 -81 25 -124 -18 89 -85 -36 -109 70 73 -101 -98 -36 106 -63 -87 36 7 -100 
-56 12 107 92 -33 -101 -10 64 127 104 -77 -28 -29 -97 7 47 41 15 -30 -75 -94 -29 -15 72 102 27 6 32 -1 -112 91 86 -113 -14 46 79 122 32 -2 30 -87 44 -3 -51 21 -100 -17 -41 2 -34 -114 74 -49 -9 125 85 120 -51 17 -70 76 -88 16 -101 
86 -126 81 -121 34 -107 4 112 -32 -69 -37 73 -62 -34 -68 -86 17 -21 -73 -19 75 -5 -118 102 -56 3 1 -58 -26 11 31 -13 26 16 -70 17 71 19 -113 63 -76 -105 87 -122 51 -74 34 -53 86 -96 -14 63 2 58 -55 -85 119 -115 124 -23 41 -41 -28 21 
-116 -2 64 117 -8 83 -56 -16 81 -62 100 14 14 127 -76 -7 18 33 -117 -23 79 73 -98 -33 16 -5 -50 61 -6 -24 -113 -46 55 -84 -111 8 25 74 -94 -39 -49 -14 99 121 102 108 5 -103 -92 17 -107 102 -41 -67 110 -98 -66 -98 48 103 -14 -108 19 100 
111 -63 43 -98 -34 66 14 -117 -54 -23 81 -117 -30 -31 -25 87 -27 83 114 -94 92 -57 -29 94 110 49 -59 22 -46 -26 -109 3 30 -99 -71 -3 12 118 105 -23 -100 -54 -18 -27 77 4 -22 18 41 -68 -91 59 118 118 -48 -16 -71 -7 -57 -89 -66 26 78 -104 
-15 115 9 21 89 -72 -56 -75 118 -3 58 102 -47 -79 59 57 36 42 29 -55 65 77 -31 86 -9 -59 -121 87 118 -93 -66 103 2 -94 46 61 90 100 66 -14 1 -28 -84 -14 -39 3 28 -93 -48 91 88 38 -99 -89 -45 -100 -19 -54 84 -87 83 78 -97 -126 
52 89 81 0 53 -125 60 21 112 -118 32 -40 -1 -48 63 16 -10 -52 9 -104 -79 -8 -35 90 127 89 -36 -108 -11 2 13 -105 -118 -85 85 -26 -74 83 100 95 27 124 28 -67 17 108 119 111 -45 28 -73 -102 122 13 -21 95 -38 -25 25 -97 -29 -88 -105 119 
-29 -111 63 -21 61 -75 -17 -64 35 -39 -32 -9 -92 100 -56 -103 -65 113 -94 -39 93 -123 104 -32 -63 60 16 -98 -74 -106 9 103 40 -62 -16 41 -74 -37 64 125 -113 113 54 86 -68 -37 96 -89 61 81 56 -93 74 -83 114 2 102 86 -23 -8 67 30 54 -39 
-8 -79 37 -43 58 27 -11 26 -109 -25 56 -101 47 -127 93 -121 -43 97 -12 -1 3 97 31 -41 -113 -19 4 106 79 -37 -3 -1 -48 -61 98 -63 -64 -114 45 23 79 128 -72 73 109 -89 -83 -21 -68 119 -7 26 -5 59 -53 -11 66 53 88 10 34 -92 98 67 
-43 -46 10 -64 33 -31 -73 -111 -48 96 43 12 -17 -103 61 112 -111 11 -47 101 -103 -111 65 57 2 27 125 -7 -37 -69 54 68 17 -45 32 -103 91 -75 100 -47 73 -59 89 70 -99 -25 116 24 -98 -68 105 -120 -66 94 -4 49 -52 77 -80 51 57 51 -42 -8 
-67 -14 -16 -85 -121 111 87 36 111 97 -10 34 38 -43 95 -93 -91 87 85 -122 -105 -73 -103 88 -51 104 -64 -98 -27 -78 111 26 125 -25 -6 -16 29 -99 12 67 -90 -101 -70 -35 42 12 33 -82 -56 63 26 -9 84 109 123 -92 -113 -94 73 22 -54 31 15 -8 
-57 18 -42 -73 -107 4 14 126 42 53 -24 -18 55 -11 -2 -69 -72 -6 108 53 -49 78 44 -55 108 -15 57 -25 -98 26 -81 62 -57 -103 60 -89 19 -83 25 -40 72 -34 26 99 -13 -71 -81 104 -124 14 122 63 -41 56 50 109 3 -86 -118 40 124 86 8 96 
-127 51 -68 -1 -128 -12 -28 -44 -84 -107 124 5 -92 -50 -52 -100 67 123 126 -26 5 -8 -1 -59 111 14 -67 63 -86 90 31 78 93 -64 -36 64 106 -15 14 -97 128 -49 -3 -42 -92 27 -13 -77 -15 80 -20 -126 35 42 -27 -115 73 -12 85 -81 -54 110 120 81 
100 -71 83 -94 71 -24 125 101 -97 -22 -35 53 13 -68 5 -103 -33 25 -114 -7 59 -94 -45 -63 115 -75 52 -85 -12 -115 126 98 18 108 -99 33 -112 -13 -103 -41 -35 61 84 -20 -95 -75 -43 72 87 24 -90 -55 -26 -64 71 -83 -88 21 70 94 -123 85 -44 -66 
116 -120 36 -112 113 110 84 -17 20 69 -22 124 -8 -13 -16 14 22 113 -89 -67 119 -18 115 91 22 28 -40 46 72 -31 -12 104 -24 110 -113 -105 17 -73 -115 4 -69 -60 -62 -20 -6 -32 90 -67 -78 -83 -105 22 -128 -51 -69 37 -10 -85 -87 6 -8 -75 2 -85 
41 -84 -52 -54 88 -19 -78 -58 -87 28 17 -64 93 6 -57 -76 -70 122 -72 -51 -21 -62 -91 125 75 40 69 74 -92 12 -66 36 34 -106 46 0 -126 -35 -96 51 -126 69 -96 67 -111 -90 -45 123 7 26 -33 107 7 96 19 38 -98 -123 56 101 38 -47 -17 -39 
-25 -51 84 -95 35 48 -90 54 35 47 26 39 -99 108 69 -74 126 -17 111 122 14 71 34 -33 -77 38 -5 21 31 75 74 115 -124 25 86 -40 -75 -73 84 -109 -94 -43 -113 91 39 -68 38 126 -102 4 -117 -88 67 111 42 -86 -111 52 -115 -13 -66 19 87 12 
-19 -98 -80 4 -12 128 -41 113 -81 43 -32 -101 -25 2 45 -55 -38 -25 -26 78 -78 -21 -59 -90 -102 -7 23 47 21 48 -1 82 103 108 -82 116 105 -95 1 98 81 -115 71 25 10 -79 -110 111 84 -10 -102 -80 105 -111 60 -43 -47 14 -6 -39 100 126 -62 113 
-83 62 70 -109 68 109 13 -49 50 105 117 78 -44 65 117 -8 -82 -105 -18 -118 -36 -43 -34 41 -128 -56 117 72 43 -97 113 -5 53 93 35 -28 79 119 50 -106 -47 -125 -85 -75 72 -37 -12 7 89 8 20 42 34 -94 72 -92 117 -86 100 90 -110 10 -55 100 
-78 -112 -11 -109 103 49 0 8 -20 67 -104 58 -105 103 102 14 -90 85 0 122 -116 -93 -86 41 -47 -13 38 -107 45 -116 -92 56 -72 -18 -22 -3 85 -73 28 53 -21 -100 9 56 -126 2 -123 -113 -103 94 61 -27 -45 -112 24 -10 -100 114 40 25 -75 15 35 111 
61 13 -90 -69 -105 -52 120 75 65 -4 -53 121 104 90 98 -66 -77 -90 -24 108 -42 85 -47 -51 -120 -97 73 -5 -107 -52 -105 -85 122 1 64 -16 90 22 -96 -2 -35 -128 28 52 -82 97 -76 -57 -9 -103 -95 126 -1 -8 -42 23 85 -70 86 -100 23 51 29 105 
-126 -76 -64 30 116 -113 -20 -127 4 73 3 -35 -111 53 -115 124 85 39 -43 74 92 -69 -23 116 -94 -91 -34 76 118 -120 -67 -53 82 64 116 -82 -57 -60 -72 -56 -12 115 -125 -102 118 40 116 -62 -116 37 -44 80 127 -1 -89 77 3 -99 -112 76 -50 -9 -120 39 
89 124 106 19 108 119 -66 80 -9 50 31 72 -98 100 -113 70 -46 -45 62 -83 -87 18 -13 -9 -64 -61 42 6 30 -7 -115 -104 2 82 -9 93 -76 -81 -16 98 97 -45 -22 -81 -78 83 101 -84 39 -100 80 -121 82 99 -18 -32 49 16 -49 82 85 106 -111 -85 
-106 23 10 -77 -20 88 35 -4 93 -72 -103 126 77 25 -106 -21 85 78 28 -102 -28 -74 -21 98 -76 109 -53 41 36 125 71 -110 44 93 -17 117 84 -39 75 -92 76 43 24 -103 -51 -51 -25 33 -82 -1 -73 -5 27 14 -61 84 -58 -78 -68 41 25 -87 80 41 
30 110 -74 78 -79 9 96 95 -99 82 85 72 1 52 -7 -17 -106 -33 -36 31 -48 84 80 -115 -20 94 80 -70 108 98 19 35 118 -25 128 36 26 -14 -97 99 111 -56 26 -112 -72 14 -126 -120 -4 74 -112 -90 -115 70 -42 -70 -95 94 -82 100 103 78 87 -6 
-41 106 -92 108 80 110 98 56 -125 103 39 105 -25 -29 43 115 -61 -23 26 -93 -61 -110 3 -8 51 18 -32 126 14 -9 124 -12 -85 79 102 -28 116 -99 -32 -17 -71 -115 -67 27 0 54 -119 72 101 63 -9 -78 1 -50 -107 -89 -67 4 114 -102 50 54 -58 100 
-30 97 -9 80 -20 87 50 -10 -103 109 29 100 107 -71 72 110 -118 45 -106 105 2 -123 -47 -105 -114 -31 42 -8 41 14 -111 22 47 2 -79 -50 53 42 122 79 113 -49 64 33 -63 26 -78 13 122 79 -69 48 35 -5 -65 -61 125 -115 -62 83 72 40 -65 -79 
24 54 52 66 -99 -29 -41 51 40 -21 -17 38 96 117 -111 14 59 36 -39 -71 12 74 -118 26 81 5 49 -7 -112 77 93 81 89 87 -99 -71 -10 -31 -49 -5 -116 85 -66 -111 51 75 -47 12 -41 -33 -94 38 -76 -106 96 -42 -56 18 -33 9 -86 72 -84 21 
-89 83 56 28 124 44 21 -16 -110 -53 -46 -20 36 -124 49 26 125 -63 -48 -67 14 -57 -81 -84 54 -95 -122 119 -47 -36 81 -125 114 -36 40 127 -89 122 16 -72 94 39 51 -87 -71 -116 57 -53 39 -94 54 72 77 123 -38 104 28 -88 -128 24 -20 -103 -18 -50 
88 2 23 82 -81 90 -44 74 62 93 56 -32 -122 -79 -119 121 -105 79 -126 -34 -107 17 -83 -70 -66 61 126 95 91 10 103 126 -50 103 -58 3 22 17 30 58 85 117 103 70 -6 100 -66 101 -57 -56 -111 28 127 5 -44 -69 3 125 112 -43 48 111 14 -126 
69 121 -24 2 -7 71 70 107 66 26 -115 22 -45 -62 -27 -78 -46 -27 -112 -51 -7 84 -86 74 14 -95 -49 -16 -98 -97 56 -98 50 90 -65 -108 59 -28 77 2 127 -38 -27 89 128 22 -1 -121 77 46 15 -13 -112 29 -39 103 92 -46 -100 -120 3 64 104 19 
78 -50 -20 57 -68 -22 -95 99 -123 3 -92 30 5 -124 29 -63 -44 -125 92 -78 102 21 -46 29 15 1 -26 -86 -73 -28 -1 -53 53 43 108 -7 -35 87 -79 -128 46 11 -9 -10 52 -33 104 -106 -6 -126 -18 -19 -12 -109 23 113 62 -50 12 -20 -103 34 -115 28 
55 -77 -102 -41 -35 -32 126 -27 82 3 -28 92 12 82 -8 36 -65 57 -37 -49 -125 93 100 10 -81 9 -14 -107 70 -21 79 -127 -29 30 -77 -45 -54 -124 106 109 -92 -13 -25 15 30 -67 -63 120 -117 -74 92 76 -28 -3 119 56 44 -51 -40 72 -27 -21 66 105 
19 -103 -30 -62 -122 -55 57 108 -14 95 109 -13 -12 -97 -67 111 100 43 113 94 -10 -20 13 -110 -4 63 -36 -45 95 110 -49 -82 -61 128 -40 -1 19 -73 60 61 105 -81 -14 2 83 57 -31 -15 83 7 -75 -103 79 99 -22 -110 -109 -49 -7 -112 103 8 -66 50 
41 42 -84 -63 31 -13 -111 106 -66 -20 118 41 51 -94 -106 31 91 -17 56 -118 -90 117 8 -84 -116 -93 27 65 47 -74 -117 89 -109 97 -52 -87 123 103 -16 123 111 -42 18 104 69 41 84 29 -61 123 -16 96 -9 24 -94 85 -43 66 -17 -1 75 -71 32 65 
-41 114 -105 32 -107 -82 72 -23 -101 47 -61 -66 -116 79 12 -40 10 -124 56 74 -116 -1 -36 73 52 118 -119 128 114 2 -60 -97 63 118 -69 -107 90 127 -8 9 -95 -44 -39 21 -59 118 -126 -94 -120 -56 -116 -11 -21 92 28 128 65 125 -32 -104 -65 -51 115 -78 
28 -127 -91 124 -1 12 -48 124 -43 -23 8 35 90 -51 -97 103 69 18 -107 30 -6 -33 -85 -30 -94 -55 76 96 7 -126 -22 -60 65 -93 102 4 -38 43 -123 60 -84 -29 121 -62 6 -119 -69 119 87 -14 -5 83 59 103 -119 33 71 -104 28 126 108 59 -100 124 
-100 35 119 114 -48 6 -37 -93 9 -120 117 -77 127 61 -115 51 -92 -77 -123 -46 69 35 49 105 108 -68 -99 -116 -71 126 127 56 -123 47 78 101 -85 -31 -99 -3 -30 70 21 -86 -92 114 -76 70 3 92 72 -72 31 88 0 -24 105 66 -125 14 -110 -74 -106 -101 
127 14 -120 -55 -94 -8 17 -109 105 60 -66 127 -8 71 -58 33 20 107 78 -121 -43 68 -7 59 -54 -95 -66 46 16 -127 -118 -14 -40 25 -36 112 -92 -120 -63 -91 -109 -112 108 -56 83 75 96 70 -72 -89 37 -109 6 23 -121 -113 -43 73 -29 -57 -10 -48 70 -43 
-101 -112 123 -110 -79 -24 114 -94 79 20 84 -108 25 -38 -60 -21 -79 31 81 -4 -89 -100 -32 59 102 118 38 -15 -50 -74 -31 97 121 -19 46 -42 102 -23 87 -66 -103 31 11 -37 -20 -77 73 -100 -95 -47 -69 77 -8 80 -120 124 32 -109 -110 78 11 -109 -66 -2 
68 0 -69 -40 -7 85 25 -9 -89 43 -87 -71 35 -20 -19 -63 0 11 125 -25 126 -64 70 -35 71 14 1 -75 -120 -114 37 51 56 -44 110 1 52 -10 21 81 16 -62 45 -5 118 -111 123 73 53 115 103 124 -121 17 -14 88 80 -36 108 -85 -105 -97 -118 41 
-36 32 95 91 15 -69 -66 1 -104 -92 106 -108 29 80 -47 126 109 94 -43 -65 109 100 9 35 19 -21 -78 108 -87 124 96 69 90 99 -63 122 -104 120 -82 112 -31 -53 49 -49 -59 -17 -19 23 62 82 74 -28 -38 95 90 -56 -54 -51 -24 118 125 32 -53 39 
8 -14 -4 104 101 80 -47 -54 104 -112 69 -73 77 -111 20 82 83 -6 -124 71 123 108 68 33 111 -112 97 77 -7 46 -68 88 -81 -46 -70 -54 32 -79 55 -56 83 -118 -13 50 36 -10 -71 83 28 -45 -51 41 -35 113 -87 -122 46 20 44 -23 -37 113 19 -51 
29 67 12 -124 -83 49 104 -25 20 -1 -59 106 -23 -30 40 79 -54 115 58 -29 -60 -92 123 -6 107 -82 24 -118 36 42 -121 -79 102 86 -108 -64 114 99 -54 15 -89 -47 2 6 76 -98 69 65 -73 11 83 -59 -53 -37 83 121 -81 34 -52 -45 13 78 7 -71 
-52 -28 61 124 -77 52 -48 44 -72 79 -4 -1 120 60 -15 -18 34 128 -50 25 13 72 76 -8 -64 -26 22 -104 79 63 -127 -48 36 -109 4 -42 79 65 40 128 21 -28 117 106 -101 50 -49 14 -9 26 19 -26 -28 33 76 39 -87 73 -31 118 128 90 -1 19 
94 98 38 -46 52 -16 -78 110 -108 10 -115 79 -109 -16 10 -13 84 120 -121 113 -16 30 -20 109 44 90 -40 -111 -22 -110 -86 -103 54 100 15 51 -123 -2 -28 -70 63 -30 40 63 84 -65 -125 45 69 -100 7 71 -78 54 15 -81 110 73 102 77 119 39 80 -59 
-111 -41 126 72 -122 -86 -77 103 -24 49 66 26 99 -14 -69 40 119 52 117 -100 1 -45 -58 44 24 -96 9 5 -9 48 65 36 27 -74 43 7 72 -117 32 -17 23 -90 -62 -68 124 3 2 -57 -23 -109 51 41 -124 -6 14 120 106 -1 50 -60 -81 46 -23 45 
116 45 -50 10 41 113 -57 -25 30 -112 87 -23 49 -73 118 23 97 -38 90 35 80 -5 -53 -59 -75 -34 68 26 -26 81 -103 -87 -44 32 -59 45 -7 103 -40 121 104 94 49 64 89 93 -121 6 -46 -21 -96 -3 3 -69 79 -86 56 -66 115 -67 -23 -44 98 -76 
-55 19 22 79 43 78 80 83 114 86 124 121 -36 -63 -107 -6 -49 -80 -118 78 -11 85 -104 -64 11 128 112 -89 -61 -81 22 53 -80 -15 21 80 17 104 -110 -125 -39 3 75 -110 -83 44 74 57 93 -20 -14 28 -63 62 57 49 -101 -70 -16 43 -79 -75 60 91 
57 -7 94 110 -18 -11 128 13 -26 -16 78 64 91 -86 -21 75 88 -30 83 31 79 61 -87 -108 82 -53 -91 -93 116 111 -95 -33 4 -106 -111 -57 -97 72 65 119 -76 14 -67 10 -55 -11 53 -118 -87 100 13 128 37 35 -113 -39 67 78 -43 54 34 45 -85 -30 
-69 -33 88 -100 -85 -125 -95 -113 103 -84 20 -125 -128 -81 37 -63 38 -111 50 1 -56 -57 -105 39 78 127 45 -21 -61 -52 78 29 -81 -86 -117 90 -100 61 44 7 -1 95 -38 -22 80 20 126 11 6 79 127 -56 -43 -56 -43 -93 -44 -31 20 33 -103 -16 73 127 
-3 -59 67 -46 -31 -26 41 -50 12 -17 127 13 -8 -3 99 79 55 -22 -18 1 -125 101 2 116 62 69 -29 27 -117 -13 -39 3 73 80 -13 -20 -66 -78 -104 45 -97 25 104 -104 104 -21 -128 120 -28 8 79 20 41 -83 91 -62 -47 32 68 122 80 48 -110 -89 
-83 -85 46 2 113 104 76 107 -121 123 -110 -54 -45 -54 -103 109 113 21 -92 0 -68 67 -53 -111 55 -59 -73 125 58 -36 8 74 102 121 102 -24 119 -117 -94 32 66 74 -11 -99 122 81 94 51 -67 -48 -67 -20 74 31 84 -87 42 -88 74 -30 -60 91 117 17 
-62 -111 24 -74 -25 112 16 -55 18 53 65 -32 56 -100 -86 10 80 -59 60 -46 92 -49 -78 -88 109 53 -27 -3 -99 -113 -42 77 -35 33 -122 -80 65 -42 -76 65 -101 58 32 -39 -90 9 123 42 64 -10 55 90 5 -52 -84 127 115 104 80 -89 55 -99 -35 -24 
-97 -128 -59 3 56 89 15 -45 102 -108 -90 -42 -71 76 -127 -100 -56 -5 36 98 -80 -39 -83 -63 -85 -45 74 -65 86 95 33 -46 -119 -83 -102 57 128 -25 111 -111 6 -33 34 -24 69 -90 -65 -121 -97 37 78 95 -54 -10 70 -53 92 -19 -78 -103 69 19 115 118 
-122 -96 13 -18 -103 -33 -124 72 -5 -81 -105 -27 -54 -5 48 123 99 -18 61 -91 110 43 60 -102 60 -11 -92 -7 -50 44 -75 10 -11 -57 19 -59 96 110 -15 -116 40 35 11 -81 -127 72 102 101 106 -32 -98 47 114 13 -105 -9 -12 -118 -118 -125 61 -31 121 3 
105 -111 -64 85 -40 -123 74 2 -1 -26 112 -99 17 -32 -111 -62 -72 -30 -8 112 -62 -96 -67 -77 57 -118 22 -115 -48 36 -57 33 -106 -7 -92 -30 -55 -66 -68 -29 -39 -95 52 103 -12 119 -36 -125 62 -114 -82 65 94 83 -68 -32 125 106 -1 27 67 -10 -45 -44 
-31 -61 -37 -64 -67 53 -28 42 128 68 95 0 123 56 48 -4 123 35 -118 -19 118 -4 -8 -99 8 -79 121 72 29 -62 19 -43 58 -124 -13 -35 57 35 -105 -99 -67 -57 -65 70 112 -108 -69 -101 -45 17 -109 -97 3 -54 -51 58 -104 -54 -120 -43 81 -38 -36 -122 
46 -124 1 -82 112 -114 101 107 -29 -54 -29 44 7 -94 -24 39 -81 24 107 -54 -116 -81 -23 120 -33 89 40 45 -50 101 75 69 102 83 -82 82 -91 -80 117 95 68 127 -42 -58 6 -74 -33 -99 118 63 -73 116 -102 -102 -21 51 14 -94 -2 39 75 -41 -125 -29 
126 34 -104 123 50 21 47 -28 3 -51 -99 83 -63 65 121 43 -70 -27 81 -21 -66 -38 121 120 23 91 91 123 -83 85 66 25 93 39 59 53 -102 58 -91 116 -72 -75 36 38 -82 -60 -33 115 39 109 88 125 38 24 123 -105 -113 -65 -75 32 -5 42 -14 -53 
-14 66 -125 84 34 35 -50 108 40 -90 46 -51 95 28 15 -90 88 87 27 -5 -65 -41 8 62 62 76 21 -29 -91 -42 31 -59 3 -24 -21 -111 -113 59 -110 -97 -41 -54 5 74 -32 -105 -107 0 111 -116 -76 -36 36 -116 85 11 35 -36 -58 104 44 28 -3 -73 
112 99 -69 -56 -103 48 -74 49 -122 -66 97 81 -90 -109 104 82 -107 33 -127 59 24 97 -44 -4 16 -86 104 -63 26 -124 0 -6 -107 -125 -72 -128 94 -21 85 -104 -37 -22 2 -112 103 46 18 95 75 -63 -99 91 70 61 85 102 -99 -97 5 -62 -62 -52 34 1 
-73 3 56 -76 100 -88 -12 100 32 -19 110 114 86 -9 4 -102 56 53 114 -110 -69 21 -106 -28 97 36 -12 4 -67 78 43 -34 -39 -69 -96 -83 -33 -119 -41 111 -9 48 9 -81 24 -4 21 -29 111 -63 117 65 97 74 35 127 63 11 -60 95 108 -10 108 -56 
98 75 30 47 -73 -29 -97 -127 119 -112 23 -41 -42 -83 15 25 90 48 -99 -67 43 -116 -25 125 -18 26 -6 -40 -74 7 1 -8 4 108 -89 -64 98 -3 115 -20 -56 -48 -9 -51 64 -19 -35 62 116 -53 -6 -24 79 -123 70 -28 -91 -116 46 36 63 -43 -110 94 
115 27 11 -4 -39 78 -85 63 -120 -84 125 34 -88 -63 -27 91 -108 66 100 -112 -28 -16 -54 -26 -109 79 -35 92 20 -78 108 -60 9 88 79 -43 -107 98 -30 106 114 -97 125 32 -116 -11 40 60 -4 -77 -70 13 -32 -67 66 -79 -4 23 -85 -104 -15 -38 -41 -71 
94 84 89 100 -109 -18 -31 61 -121 -7 -112 -121 -42 -113 -44 73 -68 42 -52 81 -72 79 10 5 -27 -48 -46 -84 -5 91 -6 -2 81 89 -125 59 64 -31 83 60 -71 31 92 8 -5 108 11 101 -26 -45 39 99 -128 64 121 24 116 75 -45 -12 -50 -20 64 -20 
63 -1 11 98 -62 -115 99 23 -101 125 -77 -105 17 7 77 -24 -21 -109 18 9 -4 49 -3 96 114 -113 -112 -33 -120 12 -123 -19 61 114 16 -96 20 -1 -2 -65 32 39 1 -51 -83 21 -101 -91 -71 68 -70 -105 27 -125 -30 25 69 -41 -43 23 124 -62 -83 -102 
35 71 37 -79 -115 95 73 -29 77 -97 27 109 -73 -5 -114 -108 7 -6 -4 -109 -90 97 -53 88 -34 62 -38 -124 -76 -37 -11 -91 9 51 103 -24 28 85 4 -46 78 47 53 94 -16 90 84 99 15 82 -122 83 -61 -71 61 -28 109 -9 -60 -24 47 -24 -61 -103 
11 -79 -29 -43 90 102 -90 2 120 15 -126 -30 -55 96 -75 127 10 -81 58 -3 -90 -114 -32 -124 50 -11 -85 -12 -50 -74 -44 -68 57 -23 -69 72 25 -3 -110 -45 -23 -120 -57 -107 -13 -19 15 114 -87 -51 -2 -124 41 112 9 104 -45 -49 -68 85 82 -97 1 -86 
-25 57 -15 -7 -28 128 110 80 -72 -82 -85 97 -105 56 -34 -116 35 -70 -54 -31 43 -1 52 -73 12 79 -70 -57 -60 -60 13 64 -21 120 -62 2 -74 75 13 -76 -13 93 -112 86 -101 -128 -51 42 22 -13 69 32 98 -90 -42 -104 -52 -8 66 -117 -7 55 42 -83 
-123 -41 65 -57 58 -36 13 20 98 79 -75 52 -125 -99 54 119 122 -78 127 53 8 94 5 23 -62 -72 106 -24 103 -7 57 -3 -31 90 100 65 116 -63 37 23 -79 -32 -111 70 123 0 75 26 65 55 -114 -106 21 -60 43 -50 13 92 14 35 100 115 100 -26 
-84 43 -91 -68 78 59 56 -11 99 -83 -41 -30 119 85 -67 5 -73 107 74 25 -32 -11 -102 91 107 82 -37 -78 -112 -115 121 -96 -103 10 47 101 -72 -30 11 -106 79 -104 -21 -57 -17 94 43 -19 -128 -31 49 -111 36 -119 -46 -36 -64 113 -126 126 73 -82 23 -104 
-58 -94 -86 -12 -82 -80 -101 -43 56 14 -60 -55 89 105 61 93 -69 -127 -71 -4 -81 -128 36 125 26 -72 44 43 -86 101 116 -117 5 124 87 -64 70 -10 84 -83 43 107 -32 116 -111 -109 -53 1 -57 -108 16 86 -104 -60 56 -13 -87 -35 -4 69 -3 12 73 -14 
29 -26 -120 111 -101 -115 -56 -53 -50 -18 -51 44 -30 15 113 115 6 87 -90 -125 91 63 71 -9 13 77 76 -30 89 -39 29 61 -27 127 -62 -39 106 -27 -53 59 56 108 -70 21 15 -55 32 -105 -75 114 11 90 -49 56 12 -40 114 69 122 77 -52 36 60 0 
83 6 90 -114 -67 -10 98 -61 33 -126 -45 88 15 -125 -30 74 104 -95 -81 48 87 115 106 110 -20 57 12 54 -123 15 -75 126 -65 114 -46 77 111 -103 5 -114 16 100 -30 85 -16 87 -102 44 -27 34 -123 -99 -45 -123 -113 -76 -20 71 47 104 47 -27 -71 51 
15 39 -89 69 17 125 45 -31 -8 -14 -38 83 13 -76 33 45 -29 -111 -69 -116 -97 10 122 -113 19 -48 13 63 22 -113 7 64 -128 62 28 54 -78 15 -99 38 117 -11 58 22 116 1 28 -87 36 -102 6 81 -107 13 -8 79 81 -111 -40 1 -10 22 9 -23 
24 71 -17 47 20 -121 -52 46 10 -30 84 -2 -122 70 -9 47 -47 88 121 -77 61 48 -12 111 53 -81 74 49 20 -16 88 -56 100 1 -78 109 -119 24 95 -101 118 93 -75 5 56 41 -107 -23 37 -81 38 17 -14 -96 -125 -45 -50 81 -85 -50 102 98 -122 -115 
1 104 55 26 101 55 86 -119 112 100 -23 -14 68 123 55 -23 -50 83 -83 82 -85 -39 -9 82 32 -51 -57 -63 -62 46 22 37 51 -62 -23 49 -120 -93 -87 -49 47 -44 -13 15 -90 -13 -82 -101 -2 -93 -58 66 52 105 79 74 105 10 49 -75 -51 77 -70 -5 
-36 127 5 -34 107 117 17 17 52 97 15 -14 106 -15 123 -39 -115 -117 -91 86 0 -29 -4 -11 0 74 9 -25 53 -76 28 41 -91 -104 -110 28 -87 -128 -125 7 12 116 85 93 55 -8 109 -96 107 -90 61 82 -75 128 -113 -45 76 14 6 -41 69 16 109 31 
-12 -17 73 -124 -106 -22 -52 -9 -32 36 -8 -68 47 98 121 -47 7 25 -89 124 85 39 80 -96 24 116 22 -38 -59 -105 -23 -122 -67 93 -79 -79 -37 86 -64 -32 46 -95 -106 118 18 123 -31 105 -49 -69 -124 -19 -87 -103 -14 -58 46 108 42 -111 -83 7 127 -40 
-95 -38 -122 76 -69 -37 -34 0 -116 -108 -76 -117 48 79 80 -88 77 87 -30 47 -5 9 16 -15 83 64 36 -3 -64 -93 -56 -70 120 58 -81 -105 -122 -13 46 -72 43 -4 -6 -58 -54 -9 -9 111 -29 3 121 -85 1 -66 -10 -36 126 127 0 -48 128 104 -127 118 
-26 -60 44 -19 -92 -20 44 -105 7 21 2 116 36 47 116 -59 -34 -14 -66 70 29 -76 22 23 32 31 71 -125 -76 16 55 106 -45 103 -109 10 -77 -8 75 -36 -82 84 18 -55 -106 6 59 90 -3 115 69 22 -69 -128 1 40 -30 110 101 44 83 20 -105 122 
-98 -81 122 78 43 -117 96 -118 -60 15 47 95 -36 -95 119 22 -78 68 -32 95 -8 81 100 -69 -44 100 -63 -23 -4 123 73 -53 43 111 118 4 -47 103 12 -84 105 -1 -101 -126 -84 98 -79 -80 17 36 -56 -123 47 41 -43 12 41 -24 85 50 -65 -75 45 82 
72 -40 -26 -102 16 32 68 -61 -33 -92 22 71 -60 -60 73 -72 -65 123 126 82 -53 -91 -85 -37 -92 43 -103 117 -85 56 -50 76 -45 -17 -75 75 -51 -58 80 -78 -58 -59 127 -71 -120 -124 72 -121 -6 76 23 -52 -76 -105 -31 -45 52 99 -45 27 55 43 -89 105 
107 46 -124 -57 115 -38 73 -83 30 -81 3 -52 27 -40 98 -3 -97 106 112 -108 45 107 -94 -122 49 -55 -69 -103 51 -95 13 -107 -21 -112 92 12 -60 -83 75 47 -25 -70 127 75 80 -63 -33 95 -72 -52 79 74 -73 107 48 110 87 -81 -122 118 39 -103 31 82 
13 -54 81 118 -12 45 -66 108 16 -89 128 37 57 -18 74 -72 -91 -89 78 66 -36 -31 -1 -16 -94 -122 -50 18 119 87 41 13 123 56 20 86 -7 91 -20 16 -46 -118 -113 -69 -70 -57 47 -30 -20 -68 44 -21 -101 -3 -55 -36 126 -1 -15 59 0 20 -91 96 
-118 54 -58 39 -24 69 11 84 95 70 -106 58 45 -81 -11 42 -9 -64 92 -2 50 50 86 -111 -94 -27 125 -120 -81 -50 -88 -3 71 59 116 99 -54 -113 -47 71 87 112 -8 18 -30 -16 19 -112 44 -85 84 -34 -2 41 76 -81 51 -67 -114 -11 -59 -127 79 -104 
-47 -68 -86 28 -40 -100 -94 -85 24 -34 123 102 -13 52 26 -110 -127 67 51 -83 26 -43 -57 -125 91 -79 23 -128 111 31 -122 112 -104 -35 34 40 -113 -29 -12 125 100 101 13 -36 -21 20 74 44 41 -9 -86 -64 -54 43 -104 -23 81 39 -113 96 81 121 -79 -114 
-53 2 99 29 -37 -60 -83 60 -45 -11 -81 81 34 -108 -26 9 37 2 -112 -3 -128 75 -127 31 59 -120 64 -58 -69 51 67 76 28 121 -121 127 28 125 81 89 -44 -64 -96 106 -107 117 -123 -16 70 77 -40 35 -60 63 28 -61 -34 78 62 -96 37 99 -86 -106 
-106 -81 -21 -24 -108 -69 10 -40 -97 117 67 92 37 -88 -120 -32 -22 46 4 51 83 -125 -97 32 -88 -113 52 10 -18 121 98 104 -15 41 -113 3 38 78 95 -91 14 -107 -9 105 -107 95 -38 -99 125 54 1 7 -103 -58 -83 82 49 -78 -127 66 28 54 -62 -121 
121 12 -50 -36 -80 116 0 95 94 75 59 -118 120 76 -69 -73 75 32 -46 105 -3 -121 -49 -61 39 -87 -86 -96 74 6 24 -44 128 55 -115 -6 67 -49 -119 125 -121 104 121 -12 -82 4 -55 -58 -104 -41 98 -33 123 68 48 65 -70 75 119 -18 -63 18 96 -79 
-95 44 -76 36 -97 -97 43 -34 -31 93 82 113 -117 -49 -115 -102 -70 52 -88 108 -118 72 -101 -10 -100 13 99 82 -3 -35 89 -85 92 -43 103 -9 -29 -122 -127 88 -126 -64 22 -50 -59 56 101 -19 14 17 -40 78 64 -59 -90 116 -59 -7 -120 -53 -11 108 -64 -80 
61 76 -102 108 73 -54 -122 90 -10 128 6 86 119 -30 113 113 -94 6 64 -114 -101 90 28 -114 44 78 1 78 82 -64 -116 -43 25 -39 76 -61 -94 14 45 -5 12 -121 -112 106 -23 4 -28 -19 -50 -53 -52 14 38 -57 61 -112 -88 -20 -82 -46 28 -92 47 -85 
-109 109 -128 -125 -10 99 4 -14 -68 70 79 97 128 -94 -101 -69 -78 -116 -10 19 -125 -118 99 20 -110 67 -87 -26 74 56 45 -34 -99 84 106 44 -38 -11 48 88 34 -111 -57 69 -77 46 -65 45 -2 -93 -47 35 -126 -33 13 -103 56 10 34 -82 77 79 17 -75 
2 118 77 -39 -66 121 116 94 -14 -2 9 105 85 9 -75 13 -24 -107 69 -43 106 -25 -1 -38 102 -85 -128 -112 89 90 121 -67 -100 114 -81 23 39 53 -84 44 -45 89 -4 50 -78 113 28 46 -21 -42 112 -44 11 -105 51 -10 45 24 -11 116 -113 -51 -24 69 
-123 -13 77 56 -35 39 47 -62 112 -112 -24 -39 -74 39 29 -86 -120 -34 83 -69 127 -103 -104 -74 -65 122 73 107 24 51 34 -15 22 56 11 -104 33 54 -99 -126 87 112 -119 8 -63 51 -41 -22 107 14 -62 -44 22 -42 51 35 15 105 79 10 -77 -29 28 -45 
-58 127 -118 90 -102 -123 74 -5 93 119 26 92 -20 -6 49 124 -86 -85 -2 -113 124 -100 64 44 -20 18 -89 98 112 125 0 34 -56 43 -118 112 89 79 -85 97 -91 123 -65 95 -38 128 -34 -68 37 -12 -127 56 66 64 70 3 93 -19 105 -1 -86 -23 -78 100 
-46 113 60 12 -22 -65 27 24 127 46 -15 0 -31 -52 68 -48 128 -31 -88 120 -96 66 16 -61 -104 -85 -72 15 -23 -8 -100 -2 -8 -38 -120 -25 -117 -94 -121 -11 -23 -124 128 36 -87 36 -97 66 116 98 -35 34 -12 -51 34 60 -2 -122 -104 -126 92 -106 -90 82 
-117 113 26 91 61 -49 -78 -119 -125 93 -122 -98 88 64 110 -5 -74 -39 23 116 -92 -107 58 87 -14 89 -115 24 -46 -119 85 105 103 -33 100 -30 -107 105 -47 -92 -58 -22 127 -18 32 54 -48 -47 -16 107 68 43 -38 11 -98 -89 78 -32 8 84 -49 122 64 -2 
110 98 70 101 -36 1 -76 115 28 40 12 107 -29 69 -10 84 77 112 -89 -117 -49 -60 -43 -113 -41 -82 8 70 -109 55 100 57 33 90 112 -62 16 -33 -65 93 91 17 30 -61 19 3 62 -38 -29 53 59 107 24 -75 68 73 -5 -28 106 114 -97 109 -111 126 
100 49 33 54 38 32 -97 56 101 61 -107 -127 127 -123 27 9 108 -85 62 74 95 -107 -72 40 -48 61 113 94 52 112 37 -11 68 -33 89 -44 74 -85 118 120 -103 -73 -17 23 -116 7 -4 -105 -112 61 -26 57 82 -82 -83 -86 -55 -80 11 -96 -104 -93 -46 91 
50 27 -35 21 -37 38 106 -106 -22 30 71 79 55 -14 29 110 -113 83 104 -82 -110 -36 29 -26 53 -101 -4 -73 -15 -3 115 -115 -67 -99 -25 -40 24 -4 -55 65 90 -93 75 73 68 -112 49 75 -27 42 -110 14 -33 -23 -107 39 -59 -73 -18 45 2 106 38 -46 
86 -113 6 5 -125 125 -117 -107 9 92 -98 -40 -37 -36 77 -55 -23 45 56 -2 100 -78 -58 -98 56 118 -90 18 -71 122 -82 121 99 84 40 -88 85 -58 -127 -13 -19 26 -67 62 -89 -9 -76 -86 -53 -50 91 27 15 39 44 -20 -122 -49 29 -122 107 -120 -104 81 
-9 -81 124 -128 -15 -88 -87 88 -37 -45 84 -45 -110 -41 -78 118 98 110 -97 67 -88 92 96 -74 59 -60 -23 118 102 105 -105 52 -27 5 64 112 -109 -108 82 72 124 -63 55 -78 -26 35 21 -6 -82 -18 128 -60 -70 9 -73 -75 111 110 -18 80 11 110 116 79 
72 -48 98 -56 -37 -23 120 -71 27 9 -77 97 33 -119 16 104 48 92 -71 -113 -21 17 -95 -109 18 -98 85 -30 17 -15 92 29 75 -40 -32 -22 -21 -107 84 -89 113 3 7 96 79 -35 83 63 30 -96 123 -22 18 -121 28 -15 -84 69 35 55 3 77 41 -22 
-69 -16 72 16 -58 121 -1 -18 64 -33 63 -68 125 97 -78 105 92 107 5 -113 4 88 -67 0 18 -10 34 -27 119 62 -124 -6 65 -54 66 -44 -116 113 -57 -100 -21 82 -109 -110 8 -12 -9 -120 -7 68 87 -12 -92 -106 -104 80 -33 -67 -81 90 -89 105 -107 78 
58 17 46 88 -79 -52 31 -93 91 117 113 103 50 -30 -80 -95 51 -41 83 -59 -40 84 -64 56 57 -22 -6 11 104 106 -41 66 -103 71 -10 21 17 -111 -125 -48 -61 102 28 -102 16 -123 -5 -100 6 11 -9 103 103 -77 -128 92 34 -62 5 -79 19 54 -17 -28 
-128 49 20 -101 -58 86 60 41 -38 -48 -91 122 -5 -120 -57 5 59 -82 -5 84 -85 80 -60 -116 95 3 -16 -57 -77 37 -117 -77 20 118 112 91 -122 13 -59 -76 -50 117 42 30 -19 11 -32 65 21 -68 -116 63 -6 -61 100 128 -47 -37 25 -123 43 117 125 -34 
99 44 82 -6 -122 -80 -127 82 -9 -45 -55 52 -41 -52 -40 -94 34 -35 49 -2 76 -56 58 -60 83 -50 35 120 71 106 -23 -75 -112 57 49 39 91 -104 60 -43 11 92 67 36 -112 -42 121 -45 -6 -3 -61 -12 127 -117 88 15 -41 67 98 60 -120 -34 49 3 
114 -33 -57 -79 90 -114 -19 -50 19 -86 62 74 10 123 -35 103 -87 72 -53 53 15 94 -83 30 -100 12 -109 46 -99 -13 -68 -99 -101 -83 -40 -73 -52 93 97 -18 104 86 -48 118 27 40 0 125 57 -111 -19 6 -48 47 10 -71 88 81 104 38 -83 -123 27 11 
39 31 -59 -108 -40 90 -19 -89 -107 -2 -10 -32 128 -56 -59 -14 68 -49 -120 -74 -99 -51 -94 39 -83 84 89 99 47 80 -11 -76 57 -12 39 -77 54 -86 -121 45 -80 65 50 119 -23 -101 -9 24 -16 99 -23 3 -38 55 -106 -126 76 -78 92 -47 -109 101 30 -117 
-85 -65 98 120 -38 30 20 29 -126 87 -38 -75 13 64 -46 117 28 -41 109 122 98 26 79 -101 -72 -25 76 75 122 99 53 29 -122 -40 -31 -77 17 6 -31 81 -85 -82 -125 -100 -30 23 -126 -97 -1 -104 106 -58 90 -66 -78 -42 125 -62 -112 111 -18 3 116 34 
-20 17 -111 7 9 47 43 -19 73 60 -75 108 -78 67 37 33 45 -18 -62 83 60 -42 50 10 93 7 -48 38 55 -55 -11 -19 32 15 -32 40 83 -40 9 -59 -45 20 -101 -95 123 89 -62 13 0 -17 13 -104 27 -52 -69 -29 0 -28 -41 -76 82 71 -88 102 
79 107 -81 -96 116 -24 -1 -21 9 90 -88 4 56 -86 60 84 56 -38 -123 -16 41 99 47 -85 64 -32 -128 -110 -99 -93 -97 -83 -53 6 -49 11 18 100 -80 41 -35 -112 -76 -28 28 37 -7 12 -15 122 -78 -89 67 -67 -64 -49 -94 0 59 2 32 104 -2 41 
-80 3 88 -120 -61 89 33 85 -72 76 76 -113 107 -37 21 -77 -110 -115 -1 120 52 -35 74 35 -67 -26 -94 52 -55 -68 29 -12 124 42 88 88 -33 92 -47 -33 102 78 -71 50 -73 -112 -128 -57 15 0 58 7 -54 -83 -40 61 -55 39 115 117 81 100 -32 17 
78 -79 19 -127 -121 -39 86 73 66 116 116 -94 13 -79 43 108 -87 -87 76 48 -31 46 -109 54 60 -74 6 -61 -11 4 19 -86 -88 124 -90 -110 -76 -107 92 117 8 2 -50 115 112 -68 -46 -3 127 48 -99 -57 -30 17 34 -31 -78 -104 -89 28 -120 -54 -62 -53 
-11 4 -51 8 38 62 3 -63 9 -39 116 119 109 -74 -80 -120 59 -125 -33 32 45 -28 -126 42 -70 -76 69 -120 -23 31 42 -58 -27 -108 34 106 122 20 52 -1 62 -3 89 -120 -78 -83 -28 22 -47 65 -68 31 90 15 -74 20 7 -106 -86 -7 -72 11 124 -31 
88 50 76 8 -120 104 -123 -67 -98 -122 -117 63 -55 38 21 -12 41 -24 -31 67 22 40 -52 6 25 -54 78 -78 86 48 86 -1 -97 84 -4 -15 -49 -95 28 96 2 -69 25 49 117 118 116 14 87 -53 23 31 -43 100 16 16 -67 -79 112 105 -13 78 67 123 
-25 -108 -75 -14 8 89 39 -36 7 17 -35 97 -95 4 -78 75 -56 37 -20 43 -90 7 12 -81 -99 -90 39 -1 122 56 51 11 -104 -19 -64 28 -27 122 -20 -128 -8 55 -117 23 70 -59 93 13 -46 -90 26 128 -40 118 40 -61 46 98 46 -114 -80 10 -45 119 
29 -76 -3 22 -103 95 103 -101 -89 -40 67 101 10 -83 -74 -28 -16 85 -101 33 -17 101 46 79 -17 -15 -110 93 -52 73 53 -70 16 -127 10 -54 105 56 -66 70 13 -99 34 -76 29 30 -13 60 63 -55 -61 -47 29 -62 -104 -111 95 20 87 25 119 22 116 10 
-38 -43 69 -118 -35 34 92 -94 16 77 95 -74 4 59 -30 -1 29 -13 85 101 5 -122 106 -1 107 -81 -61 -19 1 107 -91 -96 -118 39 20 78 -29 -21 -99 -88 -28 -34 103 99 47 102 -107 32 61 87 -50 62 -101 -36 29 118 -104 -16 -46 -50 37 -78 8 30 
-31 -11 114 -6 116 31 -105 -12 -43 -31 -120 24 -35 -102 20 -36 -87 25 -9 40 -32 124 92 -56 -111 -36 57 118 108 26 -62 -54 -44 -78 -111 -82 45 56 19 68 93 -107 -7 50 -43 44 39 83 -114 125 -73 -109 24 -105 -22 7 -100 35 -100 52 -91 110 -44 -94 
-52 22 93 -31 47 -29 88 -51 96 -7 95 -1 -119 58 43 -113 122 17 21 -6 -98 112 -89 -8 10 14 5 98 32 22 67 59 -112 -7 -88 83 -85 -41 0 94 -11 38 -69 -124 38 53 81 -41 -88 11 -39 25 30 100 41 -114 106 -93 71 -39 -109 -14 -114 -76 
-91 54 116 72 -35 53 64 -23 -75 39 -89 -41 2 -66 24 -76 -97 -4 12 63 105 -64 17 -2 105 -95 -23 45 -29 86 -28 -29 -54 -124 59 97 93 -60 86 127 -6 -113 100 -4 -97 -63 -81 -116 89 80 26 -23 3 -123 124 41 -111 92 -60 113 -33 25 71 -91 
-66 87 90 50 -37 56 -74 -92 60 -57 56 -30 -46 82 63 -76 65 -115 13 1 37 27 26 -37 -127 -17 16 74 -47 -84 42 -69 -33 65 -61 -37 72 -87 94 -46 -24 -124 -56 60 75 122 44 -69 62 -28 -82 -12 118 0 -29 -126 58 59 72 128 51 90 -17 71 
119 63 -85 29 -63 -126 110 125 -116 -103 -6 74 107 35 54 102 104 22 -26 2 82 -61 85 9 5 118 66 54 -83 -47 -13 11 -126 94 53 -2 -126 -68 81 -61 -115 -67 9 76 -12 0 -104 -69 76 41 103 108 47 76 4 -22 -110 -112 -101 -72 124 31 -124 -14 
77 -80 37 -13 7 87 -37 -53 35 -33 -48 121 10 -19 115 112 -7 -1 104 5 9 -106 104 -39 -64 -103 72 -55 -85 -38 23 -54 -26 -52 -1 23 -46 -53 71 -89 -4 -92 79 14 76 61 -92 -77 99 49 -88 122 34 -95 -16 -48 15 -11 113 67 -85 -83 115 92 
11 59 -14 -91 -70 25 -49 -42 64 74 97 120 -83 -61 12 91 -116 -121 47 -86 60 1 12 34 85 105 96 89 22 107 -32 6 33 -39 75 -85 -67 -114 124 -73 -90 21 -116 107 21 86 -82 -64 55 39 19 116 -100 -116 57 -37 -91 112 91 52 -39 -106 -40 7 
18 -94 -15 -35 120 -113 86 71 124 -76 75 -102 117 67 42 101 16 -3 16 -119 -120 65 -58 22 50 -114 119 -36 -76 20 14 2 -93 -50 94 19 -24 -36 65 -82 -123 44 69 76 55 99 97 109 -5 4 -85 -30 -119 -48 -44 -44 -92 111 -79 -16 113 102 20 109 
-41 -57 -119 30 17 75 -26 64 -8 116 -67 0 113 29 51 -16 43 -74 -28 -7 19 -47 -81 -123 -99 113 -41 -21 -11 -107 -82 76 94 75 -31 108 101 106 87 -29 109 -71 114 -126 91 62 42 -80 -61 -126 -24 -81 74 58 -65 127 64 -44 0 -103 -125 53 -105 -34 
-42 -107 -67 -78 124 -59 124 6 -122 3 86 -100 46 70 -88 53 -124 -96 -17 19 -73 -11 23 31 -42 -107 26 31 21 61 84 -73 81 -45 65 -15 110 -76 -104 107 38 20 116 -34 34 -114 -12 51 -126 -9 52 61 -8 -13 6 -122 -1 -123 79 -12 77 -3 -4 25 
-93 -99 104 -14 -64 -23 -57 -42 -82 -24 -54 -62 56 89 -5 2 -26 85 -117 -15 27 -3 55 88 -43 -40 -62 -23 109 -16 110 -90 -10 125 -43 35 -125 -124 120 56 48 34 63 57 64 121 -99 12 117 124 -23 12 -79 -119 83 -111 -96 128 -118 -113 41 30 54 -13 
-102 -121 -119 -95 -121 95 -109 112 -117 -28 21 -123 -95 -125 -19 49 -85 -53 -108 -38 99 -30 0 -19 30 11 36 -94 -13 120 26 22 -115 -6 -109 127 -47 74 -54 -7 86 51 -17 -123 -125 113 -128 107 -16 -50 -53 13 117 48 22 124 20 -62 -123 29 29 67 -42 -38 
126 -23 102 26 123 -118 -32 -106 127 -34 -54 21 -86 -23 34 27 74 -93 -63 27 -3 -75 27 54 39 -16 39 -57 23 -64 -126 120 -94 -51 102 10 128 103 26 -87 -49 -127 40 70 22 80 -92 104 -122 23 -17 80 119 -3 2 -35 -12 -21 -51 122 -5 -110 102 -25 
-103 49 67 97 -22 85 6 85 80 -110 106 51 -46 -10 -111 -78 -38 -89 -27 37 -122 113 -82 -52 80 -32 -108 -6 61 -10 126 4 -63 43 -79 31 -39 -29 23 73 117 -65 22 91 -105 72 -40 -64 67 -97 51 -1 -107 6 73 -60 66 -98 28 -124 -16 -11 54 -39 
66 115 -70 121 8 -53 3 -91 -43 50 100 -103 33 98 123 -102 121 69 -35 -31 41 69 -4 -61 84 -107 94 -116 -8 -31 -108 118 -102 96 110 -41 -120 73 -35 96 80 45 -36 -29 68 -88 68 35 3 101 25 -119 82 23 76 -20 -75 34 44 109 66 123 116 59 
-38 39 -82 65 103 -112 -95 121 -74 -58 -6 33 101 82 -72 81 -126 19 -34 45 24 -69 -91 -8 -90 103 127 27 -63 -110 -66 -72 100 -43 17 29 -6 69 -89 74 50 -119 -93 -17 79 53 1 -104 -51 40 -34 66 -89 9 5 -73 120 -66 -110 -76 -62 -69 40 -73 
7 101 -6 34 96 77 68 -88 4 -101 8 40 -52 -77 116 73 86 -38 48 -63 85 -3 -119 -45 -99 -9 -66 42 -127 0 -102 103 71 -15 23 58 50 120 -53 -23 43 13 -51 -17 -88 54 -36 -54 -21 6 82 -108 33 -36 -2 -28 45 69 7 66 96 1 -48 -116 
27 11 46 -36 -106 35 85 79 -3 -80 33 76 -86 -1 -34 81 -117 127 0 88 -42 52 128 -56 -128 101 45 -22 -40 -82 -48 -44 -59 53 47 -17 93 -8 -100 88 -15 21 -16 17 113 -116 124 51 -41 84 3 -107 100 -4 51 -38 -31 -105 48 85 -22 -12 -26 16 
-53 87 59 -104 -61 -92 -105 29 37 -25 -44 -83 54 -73 -73 -32 119 -9 87 -42 -85 44 -46 55 21 108 -42 9 0 98 22 -94 46 8 -1 -46 81 -55 8 40 -86 -103 82 -124 35 65 -108 35 -114 -50 -2 85 120 123 -10 87 83 68 93 19 56 -29 93 -75 
92 -32 -18 74 -59 -85 -112 -66 -98 12 72 118 41 -119 -84 4 63 -117 -69 0 -50 59 -5 -43 -39 -87 117 17 69 66 94 -91 41 98 32 51 111 -50 24 -50 37 3 97 88 127 -93 -40 102 97 64 0 58 -70 -2 -64 90 -78 127 -47 43 62 40 95 95 
-112 74 124 40 -15 26 -58 108 30 -58 39 38 -95 -117 -5 -99 -125 -70 41 -44 -54 63 69 56 118 111 15 11 -72 35 119 -76 23 13 89 -79 10 114 123 13 -16 -116 114 -97 7 -35 74 -113 89 -27 93 26 -13 -108 66 67 -66 -45 2 -118 -27 -34 54 71 
115 112 -46 -104 7 -80 84 -4 -54 -51 40 111 -50 -80 53 43 -22 -89 -58 66 18 -91 -31 50 -77 -112 -84 37 -27 -43 -100 -27 -58 -84 123 97 2 71 -18 -90 6 -91 51 -53 -113 -87 96 114 -34 -7 90 73 48 -47 55 -5 22 -128 7 -84 117 -84 121 -35 
60 107 113 55 -45 49 7 -43 108 -115 -126 -74 -96 -60 -41 -117 86 -62 70 53 -52 30 83 80 -120 23 -90 67 57 -52 -9 -46 -13 -65 -93 19 28 87 61 -105 51 -105 -44 99 -47 45 95 113 79 -59 -103 78 79 80 123 95 7 -35 -31 84 -62 -57 97 -93 
55 81 -74 -100 62 69 103 89 -36 -63 -114 98 -41 81 45 1 26 -63 1 -66 73 -14 -18 -28 25 4 -119 -33 -109 71 77 -123 8 85 -20 -11 -74 -69 -2 34 -85 125 67 59 -40 61 -6 -54 -90 4 -109 55 -33 -111 102 49 80 69 -95 84 -78 66 -102 23 
46 55 116 107 -8 -28 128 -25 -16 19 -28 75 -9 88 -87 -32 -21 -88 -9 -85 -70 77 15 -79 25 -9 -74 116 -112 -50 -86 -53 -94 9 53 31 -81 -36 -46 -31 128 9 -101 42 127 -76 -31 -14 111 -22 -19 27 -26 -85 39 -61 105 -115 -60 90 37 8 30 48 
-4 29 -114 94 -102 52 -13 -31 -77 -54 -124 67 83 -52 -21 -44 -116 -67 -1 119 73 45 -74 81 112 64 -5 48 -28 -52 109 -40 97 -118 5 52 -72 41 -35 -108 104 -123 -42 85 -123 -114 -121 11 -63 46 -42 64 104 111 108 -17 -113 95 99 -62 -57 -62 120 -49 
32 3 -42 73 -38 81 7 -46 -39 -122 -13 -48 11 18 98 -119 123 -39 99 -78 84 103 -48 15 -112 104 -69 -19 14 -127 39 61 53 128 105 91 -18 60 -49 -54 -110 -128 55 36 24 37 8 -20 -73 114 -65 -90 -106 20 111 -78 111 72 -32 -3 -11 101 27 63 
-64 -24 30 52 -127 74 -53 4 -6 -27 25 38 5 100 27 99 119 121 -82 88 12 -21 8 32 75 13 -60 15 -80 67 -94 61 26 -128 -21 -66 110 119 16 25 -65 29 -53 7 63 53 92 -88 108 62 -32 114 -92 33 91 107 -80 63 15 79 39 49 -36 -106 
18 -50 102 30 112 68 100 -113 -62 2 110 77 -18 -9 54 57 -89 58 -80 -106 75 -113 87 116 -86 91 -87 103 14 46 40 48 82 121 -50 -113 46 -9 125 48 -127 -25 -28 98 -76 97 -29 -40 -102 -55 121 88 -111 68 88 -95 117 14 -107 71 112 -55 108 -45 
-123 -98 -76 9 -70 -27 4 82 -88 9 95 -30 98 77 17 51 -79 1 72 -90 95 21 -109 17 -117 -92 82 -6 -75 -27 -44 -113 -15 -87 -125 14 -121 -72 -110 -87 81 76 -76 31 114 -45 -33 -92 -9 -51 -103 -15 -116 119 95 90 118 26 -77 92 -65 1 -107 -39 
104 5 -65 -102 -12 84 119 -52 90 108 -93 -47 -35 33 -85 111 17 -127 30 97 53 96 -24 -42 27 79 -65 -85 28 -94 99 8 38 -126 -52 -12 75 115 -107 38 113 60 54 -79 115 39 83 -25 -78 38 -38 16 -116 -80 -98 -71 -115 48 62 91 -60 108 -29 72 
-33 -128 -34 29 20 19 40 24 8 30 7 116 -66 9 3 -16 -98 102 33 112 -20 91 -21 -41 -54 -125 55 83 -114 -113 62 50 58 -51 -109 68 35 -81 65 -52 -60 -127 71 27 125 45 -14 -31 -16 6 -11 32 122 -122 -66 112 80 -106 40 -74 51 101 38 77 
44 -9 0 -124 -55 56 -60 35 29 -49 73 -108 -30 32 -57 -125 70 -38 50 -107 -4 -124 -21 -118 -18 -91 -60 -102 106 -95 -70 -54 116 127 -23 62 106 12 -78 -22 -121 -120 -101 97 -98 87 -47 -112 8 72 36 -99 -50 -115 99 42 -128 128 117 -117 86 -101 -49 -23 
32 -52 -76 -109 -118 -1 100 81 127 62 -100 39 56 -96 -84 -44 -45 40 -37 -105 -106 110 5 96 46 73 68 -99 55 -125 99 -101 62 -58 -87 7 -48 10 -77 -26 -39 55 -112 53 75 110 74 120 -46 73 42 -47 -93 -117 8 55 -9 -25 -114 -9 -8 46 -10 61 
-15 -23 64 20 -98 28 122 35 39 -47 -100 47 -94 12 -51 79 109 35 124 -69 30 17 87 -110 113 -102 8 -56 -128 84 29 -71 -106 70 97 -53 -60 24 49 37 26 -32 -27 121 -60 99 31 93 115 -46 -77 74 18 75 79 -99 -119 32 28 -49 -113 81 -56 41 
97 92 -119 -91 128 -61 -21 114 54 44 -76 -53 -9 -94 71 1 -113 117 -37 -63 59 34 104 8 -17 29 -20 -102 123 -116 66 100 107 124 108 11 118 -117 -112 2 4 -61 124 -96 -84 -63 103 -86 -61 -122 -96 92 -84 -79 19 81 -106 112 16 -101 3 -97 90 -112 
-75 -37 -1 96 -10 -110 -81 91 62 82 73 -118 0 77 125 -84 -117 120 2 -24 -55 -38 52 36 67 77 88 -15 60 -29 -29 25 95 80 95 -88 2 34 75 126 -128 -5 -24 -29 -20 -72 -15 21 105 -77 64 -84 61 116 -21 87 -103 65 -52 -118 -37 -30 13 -23 
7 -4 118 25 81 -71 91 69 128 -89 -11 96 -121 124 15 72 -5 -76 -90 -121 2 90 -108 7 89 73 -3 -115 58 111 -54 91 125 -89 52 -62 99 -39 -2 115 121 101 35 11 78 -57 86 106 -6 82 -49 -122 -121 -108 122 -114 -124 -105 57 50 120 69 119 -45 
-51 -29 -83 49 -48 -119 62 77 -58 36 -28 2 111 106 125 -125 128 22 53 33 67 70 71 71 19 -122 80 85 79 -66 10 -91 83 47 8 61 25 49 -114 4 -29 -78 -74 -99 -92 -119 -10 15 -28 -55 33 75 -25 118 17 62 121 37 28 33 57 -82 -113 9 
93 83 89 -21 67 -65 120 68 -9 84 79 -70 -71 -50 32 -92 118 -127 -27 -40 -108 -1 92 85 -43 -98 -78 119 18 -128 -121 108 3 -120 -3 -51 15 -31 -83 -102 41 87 70 -1 -108 -2 -37 -37 72 98 -73 -113 -72 -70 -18 118 80 -52 -105 76 99 99 -59 24 
-64 -62 -57 -49 -90 -84 -30 -11 -42 -79 92 110 76 118 87 100 -111 122 -125 -59 -13 -65 -25 -34 -56 -100 93 84 69 67 19 -41 -46 -31 -26 -18 -87 -102 64 -119 103 38 88 37 124 116 98 81 -52 86 -126 22 71 81 -91 -82 122 -96 19 -60 18 103 -62 -27 
33 125 10 51 -126 80 43 45 99 0 21 -11 75 65 35 -88 -61 -120 2 56 80 97 -82 -90 -17 35 -23 -31 11 -13 49 -85 -54 -92 -107 -8 -20 -85 27 -92 -1 -58 124 36 55 -26 -93 -88 105 101 -89 43 53 -25 126 -27 -54 -24 45 -36 -123 10 40 104 
-78 99 82 -85 73 -43 71 -49 96 106 -23 122 19 -6 88 -80 -66 -84 12 -4 127 -45 2 55 74 101 14 60 -4 -5 -20 117 101 47 -86 -22 62 -88 -117 -68 -104 -4 78 -2 -15 6 -75 22 -14 77 69 45 1 110 2 7 81 -97 -102 -79 8 125 -50 20 
-26 72 -16 50 11 -13 22 114 115 69 15 28 118 -27 47 -48 -50 -45 78 -13 -12 -32 -52 110 -121 -2 124 4 86 36 -52 -102 99 -4 -21 126 -126 83 120 67 -72 -124 -114 88 3 33 -42 50 -44 74 55 84 -93 36 77 92 126 118 -40 -50 -88 84 -12 -44 
-92 -125 46 -113 -106 44 -88 -58 98 -49 121 -92 70 -118 -72 -46 -89 42 -76 116 -100 1 95 -116 -78 69 110 -48 108 -56 51 -25 96 72 68 75 -123 -63 -65 -17 -102 32 -119 -128 -86 96 -69 -98 6 38 116 8 -101 -107 -112 -56 15 19 -86 -63 -20 81 126 -113 
-86 -93 20 77 77 2 -109 79 -1 83 -125 -85 67 -118 -124 -12 -120 34 96 -121 -7 123 87 43 66 -126 103 5 -92 9 14 -53 87 -63 -58 73 -5 126 9 72 -23 9 79 73 -29 3 19 45 79 -102 50 -102 42 89 73 -24 68 -10 -56 -39 -44 28 113 63 
-106 -60 -6 7 -95 -50 16 13 13 -83 -75 -105 70 38 88 6 -128 77 -125 37 66 -8 -110 -79 59 48 -93 116 -127 42 24 -53 -19 -41 -126 -119 86 -94 24 35 35 -3 -127 60 -70 -15 88 -40 75 -122 -119 -61 -25 -29 -57 -29 -14 -1 -24 2 -116 -80 9 -15 
-28 -32 -71 101 -82 11 -62 -24 -57 101 118 107 -85 27 -63 82 2 -112 -34 8 84 113 -6 34 -81 -116 106 -98 -24 -96 -45 -125 17 24 -55 60 -115 -2 -38 -39 -40 -82 124 2 36 73 111 99 -112 -53 111 -73 -55 69 11 -114 -78 102 55 -117 19 91 -117 -123 
82 -120 5 -58 1 117 51 -127 -32 -95 -128 -13 -6 -37 -32 -66 93 107 -83 -11 -126 -73 -115 39 -37 -41 126 -21 -63 101 -89 81 124 33 -117 -48 6 -11 117 -89 122 -67 29 25 127 63 -28 79 86 -10 -42 66 -61 -64 68 -125 78 -9 -65 53 82 97 25 108 
37 -84 73 96 73 -39 5 103 78 -41 45 -47 -89 -113 -46 -1 65 83 -1 64 -35 102 -50 -101 99 -106 100 94 76 42 48 78 -38 102 -14 112 45 110 -65 111 -56 47 123 -84 91 96 12 100 -15 -96 32 -127 44 -76 121 -71 -66 -74 -100 -8 -15 -14 31 -118 
22 70 -111 74 -128 111 33 103 -51 12 -117 48 57 -92 11 -26 -95 52 59 -104 4 -102 0 52 -69 -79 57 -106 23 94 -120 -33 -116 34 -8 125 -101 -28 97 106 -107 42 47 -79 67 -108 29 -102 -29 -113 64 66 12 24 41 -113 56 119 -47 82 -78 -85 75 50 
117 102 53 45 92 -28 -63 43 66 -70 12 122 -7 103 -81 35 -94 128 -14 -68 43 -125 91 -108 -1 8 66 -61 -37 -121 -57 102 92 25 -74 -10 21 -37 -55 -113 -128 97 -93 -62 -98 -124 -81 77 -32 90 -94 -23 83 -33 -78 95 -13 -88 -99 122 7 106 55 77 
-37 32 -121 105 -6 -17 120 74 105 126 80 -53 53 77 13 94 11 -41 -56 -40 88 84 123 82 -89 -39 19 -17 -86 14 84 125 -55 -54 50 -113 113 56 -13 66 -119 10 19 7 -110 33 103 -75 -66 94 61 65 -9 -73 126 -57 68 88 86 -36 -50 -63 107 -105 
103 10 17 117 35 -77 77 -88 -93 34 -54 -96 -27 31 32 53 -13 117 14 3 40 120 -72 -103 117 34 30 -79 27 1 -114 30 -71 22 -89 82 -98 80 -117 26 123 92 -124 -84 44 24 -108 123 -76 63 54 -48 97 -15 80 100 -11 -107 27 -53 -23 -8 121 42 
-97 -81 -11 28 -34 72 -34 -51 -36 84 60 -13 96 -15 52 44 12 -96 34 -37 -9 68 -83 -4 -17 -10 -76 -78 57 62 -86 -110 -26 71 15 88 107 5 2 17 -41 -48 -2 -67 9 109 -44 -99 95 75 -92 -81 -41 -71 113 -64 -125 115 -45 -57 114 -20 46 86 
89 -9 -32 -12 -61 -67 -103 -115 65 102 -116 -106 -26 -95 -60 71 -49 -30 -99 -61 -81 122 -48 17 -65 2 -77 28 115 -106 71 -42 104 -104 77 85 74 30 51 68 -126 87 1 -91 103 20 84 27 5 22 98 27 118 31 -65 -50 35 8 63 80 -125 66 128 3 
63 -54 53 20 -32 -59 26 -106 91 -71 -58 -85 77 39 -92 -64 -117 78 -68 23 -44 3 82 -122 36 -4 -107 -21 103 126 -74 40 -15 47 -41 -9 -59 95 -72 128 79 -21 -105 -38 -116 -99 -24 102 95 -48 103 26 -119 1 22 -9 39 -122 64 -17 67 87 55 90 
71 75 -75 -40 -128 76 -125 -18 44 60 109 -97 110 -112 -109 -20 48 121 106 22 124 -30 -10 67 -98 1 62 -113 92 115 115 65 12 95 -50 -71 -90 69 -100 -112 -91 -18 7 -82 -33 -62 64 -93 27 76 -15 123 -95 -47 15 -40 84 -64 114 -2 109 3 0 117 
-96 33 -52 -72 106 119 -47 -46 65 -20 16 -121 86 89 -51 -107 23 -79 -34 -14 -89 108 -62 -18 104 -11 -16 108 122 -22 57 6 65 86 109 101 -8 -93 -28 82 128 -69 -60 -75 43 121 -46 -84 -22 38 -49 124 -30 -39 -23 -110 88 73 -115 54 -63 -111 88 -67 
11 61 -118 -68 95 -73 -106 -89 75 -18 -30 126 113 -54 90 -117 37 3 -84 82 -6 -5 -70 -63 57 -24 -70 8 -90 -69 -60 63 -81 123 -24 -125 93 -43 38 -54 43 -112 -62 -69 -21 -16 -99 -123 -13 -46 94 -10 65 -115 64 27 -6 -128 7 -127 119 84 -57 51 
-120 5 64 46 96 15 36 83 56 -120 -109 104 -4 18 -122 -83 -23 107 -123 -38 -18 -13 90 119 95 -104 -23 122 36 27 96 7 12 109 -116 82 -35 -71 -87 -50 31 84 -101 -121 92 -119 -31 -4 35 51 -3 32 -22 -13 2 27 7 -16 -78 85 97 -85 -78 98 
-48 48 -88 116 -91 -96 -84 14 -6 0 -45 76 90 -14 17 3 -11 -98 -100 -68 -84 43 115 38 -95 124 -83 -30 115 34 94 -110 65 -43 71 104 -73 -99 24 126 -96 -25 -8 46 -79 104 -43 123 -39 -116 -5 -108 -20 -42 1 -120 -47 -35 83 -51 -38 35 -19 -60 
-55 90 -19 -6 -75 -97 -105 -53 -1 60 -85 -39 39 57 -2 -3 -14 -26 -45 -25 71 -89 86 57 -50 -110 -89 -18 -32 -36 -29 -76 31 59 21 31 60 77 -126 -87 -60 127 -70 -115 -11 -117 -66 117 -101 80 60 25 -75 65 79 -116 -75 -108 -48 39 -3 -124 70 -103 
-108 34 -23 64 53 -125 101 -63 -68 -94 32 88 -52 40 112 -26 -6 4 54 -47 57 -127 112 -57 -45 -75 -92 49 -91 -23 105 48 -29 -16 -17 40 -44 38 91 57 105 49 84 88 -63 28 125 84 -61 48 -83 49 69 76 -47 98 -75 -36 -71 33 -82 -71 -65 119 
120 10 38 125 118 -112 73 37 -85 31 51 43 112 95 94 89 68 32 -12 113 28 -72 -55 114 -3 -1 -72 -41 30 -107 -57 46 -67 -112 37 5 1 121 -50 -19 -108 -21 27 124 82 108 -78 116 18 -15 -121 72 73 123 -29 73 -92 -26 -54 -38 -71 -28 53 102 
20 42 12 72 93 128 75 27 53 -104 -55 75 -3 41 71 113 -43 -5 3 24 33 71 -35 -53 -1 120 -77 51 43 34 15 -67 -121 114 -50 -72 -61 -111 -83 26 15 -48 60 7 59 -68 -29 -62 82 -49 -105 -86 95 -34 -120 -62 -74 -36 -123 117 104 121 23 36 
60 75 -15 90 -17 -25 -45 31 -54 14 101 125 -49 -52 30 -20 116 -82 -20 -30 110 0 -30 -82 -30 54 81 85 104 87 102 -50 38 -91 15 80 -53 15 63 89 -8 -117 67 32 -15 9 36 -33 99 59 -18 32 -47 119 119 -91 -47 111 -120 -78 72 127 26 50 
6 107 -41 -107 92 -36 -65 107 -102 78 -122 18 100 -16 117 -94 -12 -105 43 -64 -100 -74 36 114 78 -59 -10 -103 -59 90 42 125 34 103 26 -57 -24 -115 4 -95 -124 -31 21 -77 58 -35 8 13 111 -112 39 -109 41 -103 78 -109 55 34 54 15 120 -21 -2 33 
0 -67 -101 62 62 22 99 47 -48 56 -9 7 -49 -89 -55 -118 -53 -82 -108 91 13 -88 49 -104 86 -60 -62 109 80 5 -41 -7 44 -47 102 83 125 -118 -11 13 58 -59 47 4 111 82 -123 -62 86 82 -32 4 63 -79 73 -124 -49 91 28 86 -33 47 8 -100 
-8 -93 -29 54 -47 -13 74 6 -105 -63 88 -52 24 -94 -66 95 116 76 90 -33 -113 124 -114 -116 -117 -40 -123 58 -51 94 -29 46 -12 -90 34 32 -18 103 -119 -37 13 -122 11 109 -68 -74 127 -50 -34 89 -120 124 52 92 6 119 -108 -65 -55 -115 123 1 107 30 
-59 -119 43 34 -84 -117 -73 -55 59 -32 -75 87 -38 92 -96 89 -41 26 125 -88 30 44 53 17 -89 -51 -65 59 -69 -126 -17 -105 109 64 106 -30 -8 90 -80 7 -79 86 -49 -11 18 -57 -105 -55 115 113 65 64 -72 -16 -55 45 -106 -127 -51 -12 -77 -38 -7 -25 
-22 115 50 -64 -10 63 113 85 18 104 -7 63 -7 -28 67 -122 -42 4 69 -56 22 -44 24 -2 -101 -39 -80 20 -63 -23 93 -41 -56 -109 102 51 58 43 86 -80 93 -56 13 57 -100 31 -16 -51 18 -58 10 44 -108 42 51 66 75 100 125 -39 103 6 0 -112 
-119 119 5 -40 125 -34 -76 -56 -14 -3 -33 -110 -101 43 36 -95 12 -82 -36 39 86 1 -77 -15 -23 32 -88 109 -11 -78 120 48 24 -104 -7 114 96 122 -52 83 41 110 35 -1 -121 114 -103 -116 90 48 120 -109 51 9 42 -50 -114 44 3 110 69 43 -79 97 
109 -35 97 23 15 73 124 88 -110 102 -91 10 77 19 66 17 -54 9 115 11 -34 -117 1 -36 -46 111 37 52 -63 83 91 33 -62 -31 -126 -24 33 118 -79 -45 86 -41 88 76 -4 -97 -63 23 -104 17 70 -78 -95 26 105 -29 35 -41 14 94 56 5 -85 -117 
76 -23 -123 120 -119 -56 114 -79 99 42 10 100 -71 -56 -5 -48 120 -94 52 47 89 89 -24 -48 44 20 -73 -81 -87 58 48 -119 -123 -126 8 -114 -74 55 -80 -74 -123 -92 -42 -53 73 -40 -52 -22 110 27 66 32 -77 125 -118 -64 31 -28 -122 27 52 84 44 11 
49 -49 -111 55 110 50 16 -48 29 -116 -113 55 -52 49 -29 -4 96 -39 -116 -56 -123 -14 78 5 73 -29 -28 -117 -94 5 76 11 -36 -40 -85 -16 -21 27 31 56 119 95 -17 100 -80 99 -16 -76 3 -74 -31 1 -85 -67 -71 14 100 -118 59 104 -13 -127 -51 49 
-115 -38 33 -51 116 -103 114 -19 94 79 -102 -42 22 -65 83 -96 53 9 -32 39 -53 0 90 52 75 -17 64 8 -26 84 -80 111 127 15 53 -58 -97 -23 -116 121 -55 -80 34 -96 122 -1 14 -108 -20 77 -76 -50 -89 57 120 121 -26 43 15 109 -11 -14 -56 -65 
-11 -63 -82 34 12 27 -24 -89 -2 19 72 -78 -112 -24 90 -37 -12 -55 89 87 59 -77 4 8 22 -34 5 -118 60 29 -20 117 -28 58 -54 86 -40 -124 107 -107 -28 -102 28 31 -122 115 -21 -49 -57 -55 28 46 -128 31 -114 94 123 63 91 -20 -112 106 99 96 
-50 106 -9 -79 -62 -16 -93 -99 -41 -56 -25 -19 -125 5 -65 -57 96 -82 7 48 -74 -101 -44 47 -81 -36 -42 -57 61 77 -31 48 -112 -22 104 -84 116 -106 -34 -95 59 -5 33 -92 -119 -116 -83 -56 102 77 -5 -113 86 47 -61 7 103 20 -2 78 89 -112 -114 -122 
-70 -77 -18 -31 42 -102 29 121 -80 -128 27 6 125 -125 114 -124 -80 99 54 -60 106 -9 105 -13 126 -67 -9 120 45 23 67 -84 -41 -111 -63 -73 -6 -90 -69 115 125 26 -128 20 -62 -116 -90 -117 10 -12 -37 -50 -52 13 -110 5 17 -69 120 -126 100 -96 -16 14 
15 -52 -108 71 76 83 -123 57 75 -18 46 -35 -113 95 -70 -125 127 90 -70 -78 100 77 -81 -115 116 -6 44 -111 70 -81 114 45 -124 80 96 -106 -46 -92 -57 -4 -19 -32 121 -67 -111 -97 112 -109 16 -50 64 -36 42 -17 -124 40 -126 -10 -35 -97 73 -75 3 1 
-91 47 107 -74 -63 126 72 10 98 121 -116 63 -16 -97 66 84 -76 41 -84 -16 -45 1 65 48 111 100 96 -49 -119 -32 -5 26 55 -128 -112 -23 98 -106 -29 -46 -98 110 73 20 95 68 -110 15 -12 -20 -60 -43 -106 101 -81 40 5 -69 122 -71 -56 121 -4 -74 
98 80 81 -120 -95 94 78 -67 29 -57 50 -108 -44 21 85 -10 -118 -74 -92 74 38 90 103 -109 -69 -95 19 -103 114 -65 -51 -124 -126 -105 -72 -59 -99 -39 -77 5 58 32 -72 -126 -88 -103 -88 128 79 87 -27 -36 50 31 42 -20 -100 20 -8 21 100 35 15 28 
-104 112 55 -48 -116 107 4 -55 9 68 -67 75 -20 -101 -45 -78 -54 105 -103 -91 92 4 124 65 -10 -19 64 -11 36 3 117 128 -17 -18 -23 -45 -98 127 78 126 -69 35 62 -112 65 -60 -47 27 77 -127 -98 -18 -42 -126 -9 -111 -109 91 4 -95 96 64 -28 120 
38 29 24 -85 37 -60 111 39 -90 -93 93 33 60 125 -36 -123 -81 -49 59 116 19 -19 -39 6 -76 42 20 123 82 85 69 102 42 43 82 -40 109 -1 119 -33 55 -21 28 59 -59 101 33 -57 -50 -53 -114 73 27 -89 -11 97 -101 45 54 -71 93 115 -122 96 
-118 3 96 79 32 -102 51 71 -123 51 -86 -8 -123 -11 112 23 35 -44 90 125 -68 32 -102 87 96 -101 11 46 119 -66 -89 70 11 39 -11 -57 109 -69 -89 107 4 -117 -107 8 109 81 124 -68 51 -83 -118 28 34 -113 119 30 62 13 69 -21 125 32 -112 -123 
-21 -23 -41 -9 -58 -109 -78 42 100 67 2 -110 124 121 -73 128 108 30 -97 44 115 -68 -57 -117 11 8 -25 -5 19 -38 93 -60 -39 -124 69 16 30 -26 58 76 86 -17 69 -39 -74 -70 14 -80 -16 -11 -65 74 -78 -92 -24 62 -112 -100 -34 28 -117 107 20 -102 
-49 51 119 94 61 -69 -55 68 28 -71 -9 62 -65 81 31 21 36 4 80 -52 118 -105 -122 51 -104 -103 -126 -87 0 -35 -102 -12 72 18 -24 110 -55 -38 -49 -105 112 -49 48 101 87 -74 55 128 -55 45 63 -1 -4 -69 37 98 -72 -9 -43 9 -109 85 5 54 
-81 118 -75 71 -94 -2 -36 -1 -94 -64 128 -74 -25 -58 41 -5 90 36 -66 41 -86 -2 60 32 -44 -59 -6 61 -95 -118 87 -124 91 94 -93 77 -111 -119 -73 28 -5 81 -126 40 -44 3 -97 -86 111 93 25 121 -67 75 82 109 53 76 -74 -52 38 -13 38 17 
-102 22 -18 107 70 53 5 72 -56 -99 74 -70 107 5 51 -98 5 -8 117 -15 -27 -109 12 -16 -4 106 21 -33 32 76 -65 43 26 -94 101 -7 -36 -128 107 -37 31 38 -18 -4 -31 107 -79 62 39 17 64 -36 75 37 -50 77 -112 -116 -61 -32 -46 -109 95 76 
104 -128 -58 -108 -7 37 -15 -59 106 97 1 -49 -111 -90 128 -116 66 79 -128 124 -44 -81 -52 -55 11 65 120 124 -11 80 51 -22 9 36 2 125 115 107 75 32 -6 -36 49 -120 -103 -127 -63 -55 -67 124 109 81 -61 57 114 -79 19 -35 3 -69 7 -108 -88 -128 
87 14 -6 97 -32 120 -65 -18 -69 -41 26 21 -25 -59 117 24 100 -45 99 10 -96 50 -97 -27 73 -43 -23 -65 99 33 -96 34 91 53 -52 0 110 98 -98 -95 78 78 -98 -30 -54 44 124 125 -9 117 -69 -50 -82 -58 -103 -88 119 -34 46 -88 8 2 94 -50 
90 -110 86 80 -41 -102 92 -34 -21 -86 -119 81 -17 117 120 76 113 64 114 44 89 100 -39 -72 -42 -13 -98 -83 73 -31 70 3 117 -65 -13 -21 20 -30 -53 -32 -87 -120 60 -19 -23 33 -44 66 -3 -122 -101 -87 -12 -98 -3 -2 -40 58 9 80 -56 95 82 -108 
27 -77 -34 -124 -4 83 69 126 -41 -26 -20 -13 -58 -121 -13 52 118 -58 128 -84 -65 121 -97 11 -124 42 82 82 61 -94 -98 120 42 -34 -10 6 -103 22 18 38 -76 -69 -71 102 102 128 -104 30 95 -39 53 -119 98 -11 -25 34 -86 4 -118 4 -30 31 91 41 
77 -45 49 11 -101 23 -60 -36 -19 -76 49 23 -76 -106 -100 28 -85 -87 91 -89 -51 -127 39 37 6 65 -37 113 -84 20 -115 -92 43 41 15 77 26 96 106 -99 27 89 -81 -110 -110 -33 -54 120 6 119 55 -60 -23 127 -93 94 -99 106 -85 -19 3 -26 -65 -78 
-32 -12 -62 -41 -46 58 -37 -64 -11 62 107 19 -82 3 73 5 111 102 -71 -104 17 -73 119 39 50 49 73 -38 67 3 -43 -66 -28 48 -55 113 -110 -93 -13 78 24 19 -103 0 -122 -29 -35 -9 79 112 82 11 69 -27 -74 66 62 -114 -87 -44 -67 -14 -9 -25 
63 20 120 -80 -98 -85 93 -4 119 0 -33 124 102 -21 -39 -80 -61 38 87 126 -90 111 91 -106 59 60 69 -36 57 -41 -65 -95 -125 -31 4 -90 18 -106 63 -81 124 -7 -71 -74 -22 83 51 -115 17 5 -41 -19 127 -29 38 5 80 -35 1 -52 32 92 27 20 
-92 52 -68 99 -91 41 65 -98 124 68 -31 -7 -87 23 4 -103 -107 72 58 78 127 -44 -31 -45 -125 -31 -58 97 102 -57 -20 -85 -97 57 64 -5 -60 25 37 -59 -69 -105 43 49 122 13 108 54 55 95 -16 28 -16 -14 46 -52 63 -54 29 55 -26 -2 -103 47 
49 85 4 77 -4 37 28 -60 22 -47 11 -40 -83 10 33 -116 33 -69 33 8 -126 108 108 94 127 -67 -108 68 79 -40 91 104 21 -43 28 77 -18 111 80 -96 6 -47 45 102 -41 -19 -95 -26 18 105 42 97 -11 32 46 86 -75 -126 -112 -110 -105 80 22 88 
117 76 56 -119 115 128 19 -74 -69 76 -110 -118 19 97 -34 97 -13 -96 -61 -6 -93 -72 64 -65 -45 -86 76 52 39 -28 52 4 -117 65 69 55 -76 -81 97 -62 -114 -5 -124 116 55 -41 -85 -9 -69 -10 106 32 78 -59 -119 -109 21 -5 -75 -89 59 -116 96 33 
76 35 125 35 124 26 -85 -119 22 26 87 121 52 -59 -77 84 -117 56 -18 91 20 28 -115 55 10 47 -114 -47 -127 48 -46 -30 34 -74 44 -106 -88 -106 -85 41 -112 -57 -126 69 -69 -1 19 -118 77 -119 -111 0 10 36 2 85 72 63 -85 124 94 42 -29 49 
99 13 -64 -71 115 67 34 36 -20 -35 -104 -57 125 33 -49 -6 36 6 -24 105 -76 -33 3 -19 -81 115 -73 92 57 73 -1 45 81 14 95 -19 111 -26 -56 -19 66 -36 81 -100 -38 67 -127 -7 -22 71 -93 9 61 128 73 -63 -5 -78 -87 6 -126 -84 -73 -97 
16 21 73 -8 96 2 118 64 55 -61 112 41 -5 -127 -101 95 -37 84 103 90 -80 -68 -68 -105 -38 17 -8 17 -48 35 -41 15 -47 -20 -36 -70 73 101 32 68 5 111 -26 -108 128 119 -67 -66 42 111 -75 47 -23 127 71 -21 -36 -89 114 24 -64 12 118 -27 
47 -29 -20 59 -5 51 115 49 106 -18 78 42 71 -112 86 1 -20 92 -77 -14 -74 34 6 80 -71 36 -31 -95 -5 3 -35 117 83 45 -84 -91 -127 -101 21 -49 16 -120 -15 -65 51 -15 44 98 -26 126 -40 17 11 -104 75 125 119 80 126 -116 -14 -118 -6 73 
-43 8 20 -77 -51 68 89 93 -37 -65 -111 89 44 56 -116 14 -62 2 -15 1 66 -46 128 102 40 -22 -121 -106 -95 67 -18 19 88 88 -107 1 -94 30 32 39 106 -119 87 85 -20 -70 -24 -57 -46 80 -19 124 123 103 30 -107 -17 23 -96 -64 20 -42 -33 61 
-6 -5 -72 93 -124 24 -45 -126 67 -115 -26 64 -107 66 -98 21 -109 -40 109 -67 112 -83 124 -71 -46 78 -7 -92 -17 97 53 -110 88 27 -11 -86 -121 7 61 112 95 20 4 118 126 2 -35 -37 108 -38 27 -13 -58 -110 7 28 -63 4 -91 35 -17 -102 -66 63 
-103 -6 -32 67 -93 39 3 79 -45 90 -62 -62 80 66 -96 71 31 -46 -41 -22 41 -82 92 120 117 -61 -32 52 -50 86 -101 58 -23 -70 -63 -97 54 78 91 84 21 -70 -6 -17 27 -37 -108 -33 -50 -12 -3 66 -83 30 34 -100 -53 88 51 42 111 -17 53 -70 
124 -58 -115 -86 -37 -59 -115 -8 -82 79 63 -55 60 -123 -86 -35 6 116 98 6 -32 -26 120 62 63 96 18 24 -109 -10 100 120 72 -27 92 108 -121 53 117 81 126 -76 -40 114 34 -16 110 -61 11 123 -74 19 54 40 97 -120 -37 14 0 7 -110 -80 -50 100 
-20 -105 -84 11 91 46 43 86 23 -93 17 90 80 124 -90 47 72 -100 -80 112 -74 12 -100 57 -52 -82 -112 -78 49 112 16 77 -38 -96 56 61 -80 84 -121 -97 17 83 79 -118 -50 89 28 90 -105 10 -27 -17 100 121 77 45 -10 5 64 4 23 81 -10 110 
65 -72 -110 50 -19 -6 66 100 109 94 -71 -12 45 99 30 -86 12 -46 108 19 -32 108 83 -128 -68 110 104 8 -102 79 107 -38 41 12 -107 50 59 -41 113 -49 114 66 -8 104 -90 96 67 -83 55 -85 40 -33 -84 -6 -105 101 51 -117 102 92 97 -24 -9 -89 
-34 -40 -17 40 116 -102 87 -63 -53 20 101 66 93 45 111 56 -1 119 -64 -52 -126 8 92 104 -127 95 -120 111 30 -120 -115 35 -104 -24 44 103 -32 -34 39 110 85 -33 -77 -98 64 -2 112 -95 44 115 -12 75 39 18 124 56 -127 42 47 -72 -66 2 -97 -69 
5 -7 -87 70 -98 121 27 66 108 -62 -44 31 -47 32 60 62 48 100 -123 -77 70 31 99 -67 -86 126 -51 20 -26 -103 111 -1 109 8 -19 -124 45 -75 40 28 57 -98 23 -83 -64 70 21 -58 -96 111 -108 -23 33 3 77 -1 -122 -87 62 65 -111 98 32 -27 
-48 25 -15 -45 -19 -76 52 -128 -33 -3 -4 116 95 -92 -14 29 108 116 92 4 96 -120 -116 73 -99 -11 3 64 -16 127 -43 -53 -81 1 -88 -62 -119 114 17 -40 -103 30 13 54 -28 55 115 -2 -2 -120 93 -64 15 68 76 -10 -48 -50 -101 118 105 -99 -122 -67 
-54 58 57 -109 -17 7 122 -94 65 -24 -75 123 -36 -59 74 -104 84 107 6 -40 92 -116 92 -62 -126 44 60 22 28 93 94 8 57 109 70 119 92 -10 -64 35 126 -1 11 -71 75 6 98 47 2 123 -68 6 10 -84 98 -114 -25 -9 40 -40 102 111 117 73 
-61 90 -74 11 1 -87 26 -64 -26 102 5 75 102 24 60 -8 -126 -79 -84 88 -112 -80 -87 -121 117 98 110 26 56 122 86 128 -5 -26 54 -78 51 -78 -49 -120 29 -43 114 55 34 -103 -30 79 27 -72 4 23 -58 -5 32 87 88 112 56 -36 -117 -39 -56 103 
-114 122 -71 -92 10 24 -103 116 -18 60 36 -128 84 -109 -48 57 21 110 39 88 -37 -104 62 -127 127 21 -19 17 -17 -53 -71 -7 -46 -37 32 -10 -72 78 -116 -57 -108 -127 30 84 -8 -59 -53 114 114 54 -29 -88 -59 64 99 -64 -34 120 124 40 119 -7 47 -100 
113 -75 -102 98 -102 -38 5 -49 -83 -119 -112 19 63 11 12 -78 81 -105 89 -4 -9 -102 -56 59 -93 -19 -111 -126 -14 85 -13 -81 12 -28 -106 -28 -1 -15 -81 -59 53 92 90 -127 -43 85 57 -95 -84 -6 5 -45 91 -111 0 -92 90 -26 104 126 126 -111 -55 -123 
47 -115 101 33 64 16 0 80 53 -64 -22 -122 -12 -48 -128 77 -102 -84 29 70 -18 87 30 5 29 -60 77 -96 -49 -28 119 112 60 109 -101 -32 -39 -109 52 17 -53 111 -91 31 125 -118 -39 117 10 27 -74 78 64 63 10 95 55 -45 99 -59 -114 -32 -52 -89 
54 -89 -97 -42 -37 119 -65 69 -72 88 -102 -76 -64 101 -36 111 -31 -74 92 73 -98 68 -13 4 1 26 -26 -10 -118 -84 77 14 -42 56 -79 -104 -72 41 -50 14 -38 -50 99 68 -85 -97 123 104 -78 112 101 -52 41 -17 122 -82 95 59 -20 -54 -49 -68 34 11 
-25 113 -28 80 57 59 123 34 17 110 -25 102 121 -105 126 -61 -20 7 69 -94 86 54 107 83 -57 -28 113 -3 7 -46 -59 77 -119 -38 -75 45 -6 8 95 87 -42 115 -61 -101 -77 105 -9 116 -96 71 4 -2 -29 -126 -91 -17 -101 107 -82 -37 -46 69 62 108 
-6 -103 116 47 122 11 -76 -39 -1 -128 -95 -53 -102 -72 3 102 -34 56 27 -7 -85 -87 17 34 -79 65 -91 -87 75 3 -57 -104 -89 40 117 -82 -96 -111 -58 -69 -27 95 -32 6 43 -13 -72 38 73 -108 30 25 -128 58 66 -105 12 42 63 44 101 95 112 -41 
90 119 100 85 59 62 -59 59 -62 63 -123 35 -104 -53 14 11 -67 -99 -109 71 88 121 61 -87 -78 95 -96 -30 -86 88 -35 74 -28 -52 -47 98 109 -21 -1 16 -83 -20 35 82 -113 -65 -103 -117 -109 -107 -126 -63 -66 2 15 -96 118 -118 83 40 25 118 -109 -29 
-65 -117 64 79 114 -76 -128 -122 -65 63 -118 -2 9 -35 64 76 57 -84 82 113 -115 20 107 -73 26 -8 -7 -103 -15 -45 46 -95 91 -20 -109 -77 57 -49 -76 91 1 -64 -73 -128 21 -124 76 -126 6 -108 123 34 120 -71 60 -38 -6 0 31 -51 -81 61 -94 -127 
38 58 56 25 -99 127 54 -80 -60 108 -127 32 53 -80 -90 108 -48 -81 -41 -67 90 79 37 -89 -56 92 -119 -124 -97 -89 75 -105 -106 -62 11 -122 -9 29 114 -52 5 -16 -119 -7 19 122 96 115 -57 -124 -121 124 125 -64 106 108 -84 -73 30 117 -119 48 3 8 
-125 -100 12 36 -65 -67 -50 89 -122 -67 67 90 -5 52 -126 -121 -25 31 112 93 -12 49 -76 -20 103 63 -65 81 -3 -95 -32 -42 -71 17 62 40 104 -31 -117 77 68 56 -30 -26 87 -22 15 -2 124 -118 -40 -36 -100 107 -61 84 -57 -101 67 -111 -54 115 41 66 
102 120 -67 -14 -107 15 28 23 85 -8 63 -68 92 104 109 71 -17 93 -102 73 -22 -122 7 -56 45 -73 79 121 40 95 -74 -100 -99 125 45 84 -65 45 20 56 83 16 43 -128 -91 -100 87 -1 100 44 5 4 -99 -21 87 -115 -33 -37 68 -111 -30 -81 0 124 
-35 -40 -35 -7 20 -115 108 -104 -66 -15 -70 39 -124 95 -82 -21 120 -78 -100 41 -69 -93 64 21 63 -87 -107 68 104 -54 116 -51 19 -101 112 -72 -3 25 -48 -99 -26 61 -26 107 -112 29 4 -101 -14 120 47 -24 -77 87 82 -62 -90 -2 -95 44 127 56 -97 -28 
43 106 -2 -66 37 -28 0 39 91 39 81 -32 -85 44 -62 -115 78 16 90 -9 -74 -102 37 -65 39 -97 -21 -99 35 -92 114 -75 -52 6 -75 -64 -22 99 128 -57 77 66 54 -94 51 105 -112 66 -109 -17 -5 -111 1 9 13 -82 109 -71 40 -45 -12 0 -108 -63 
30 -93 109 -49 92 107 122 -31 -24 31 93 120 -102 -31 -111 -105 -43 37 -43 -48 33 -62 76 -59 -117 25 -83 122 60 -108 109 -126 97 -80 79 104 -57 -56 66 73 116 100 20 -89 76 18 30 86 8 32 -49 91 -106 107 59 103 33 -94 10 -72 18 53 -21 123 
-17 92 63 -119 -71 -28 2 -106 -16 -100 111 120 -29 62 -41 58 106 -15 69 -98 -23 -4 55 -27 6 29 -58 -96 -94 -20 84 36 -113 -83 44 -84 -47 -123 -109 -120 69 29 -113 73 31 -80 102 -101 -45 -88 118 -47 26 -103 123 -98 -81 56 53 119 -35 127 -113 86 
95 -92 -87 24 -90 -67 -38 93 -66 114 -4 118 -46 -49 60 93 25 -55 97 19 -104 -14 5 -105 -58 77 -59 -40 4 -72 9 98 -21 -62 118 -103 -122 37 45 -52 98 -71 -35 127 52 120 -20 94 -32 -104 -69 -72 74 -100 6 25 -18 80 -26 -31 117 -35 120 -97 
-76 78 128 -113 -57 -19 -73 35 54 -62 -55 68 16 24 -87 93 72 109 21 114 8 21 -51 73 58 39 26 -46 -106 -5 -124 91 -26 -93 66 25 -26 -87 -30 74 -30 17 17 59 119 103 -6 59 -65 16 48 71 11 85 3 -97 6 -105 103 99 -89 60 -13 -72 
-117 83 2 -12 4 -27 23 35 -69 -128 -61 -78 17 -47 -99 -35 96 -91 -53 94 108 50 44 -72 9 48 -80 -64 -61 13 26 -70 112 115 112 107 30 44 -11 -94 -59 -32 -64 116 48 40 -9 75 -95 57 -94 11 -3 127 -8 -63 -87 -93 7 3 87 20 -8 -60 
64 -44 -85 68 -55 61 12 60 124 -12 -23 55 116 -89 68 105 13 -44 -119 79 -39 102 -36 12 -96 -102 55 -14 117 -25 -38 119 50 -122 -1 51 101 25 49 -51 -91 29 56 76 109 99 -115 37 7 -11 9 -54 -109 -31 89 78 30 -34 93 -47 -43 -34 -90 127 
91 28 69 67 -68 -99 -10 -98 48 -14 12 -69 74 -107 92 69 60 9 -40 70 -78 -92 -45 -9 50 17 12 -5 9 -56 -46 81 -118 -3 -58 -117 -83 126 -66 -123 -7 3 78 3 2 -73 14 -119 40 -89 -105 -65 -96 -100 108 -112 -4 -93 -97 121 68 -122 -116 -75 
51 100 -113 -20 -2 -107 55 123 -45 17 -11 -80 -97 -59 30 -114 94 54 68 116 16 5 -37 -103 23 -30 98 21 -43 28 -17 53 -125 -76 -111 72 -98 18 23 4 -102 -87 56 -94 -13 -38 -41 -66 -83 -21 -68 128 -43 127 -86 104 66 49 12 10 116 76 10 10 
32 -110 -58 44 -72 29 -41 63 9 40 -28 51 114 70 -68 -79 44 -128 -117 94 -28 2 -33 -66 -8 -113 -20 61 97 64 11 -49 -79 -117 -11 -45 -85 -53 -119 -58 -87 -121 98 81 120 -54 -31 81 -126 -45 116 2 23 -83 51 87 8 -37 -110 78 -103 48 58 -84 
37 -94 3 60 63 -35 35 73 -24 20 30 -76 8 -72 -2 -29 67 -110 107 59 -43 -37 79 66 95 98 -121 104 77 -107 40 34 80 -29 -102 63 -98 30 100 -11 -59 -68 15 18 -81 103 -80 -112 -75 29 -8 -29 102 22 -105 -94 -110 4 51 -124 28 -35 -121 -73 
-28 102 29 -58 -69 116 45 42 -120 91 -118 -30 -4 -70 -22 -78 -116 -6 -26 -106 81 -53 14 116 -66 -52 128 -44 -73 -41 121 -69 -99 1 -29 -43 -17 79 40 18 -61 85 -103 9 -91 12 -78 -9 6 -77 -111 111 94 -4 -76 91 -63 14 -31 -39 -1 -80 56 68 
23 -127 -126 -80 -118 -116 -58 -62 27 116 97 36 -28 32 -10 -22 68 -95 -50 118 -90 116 -19 32 72 -36 38 30 45 95 -84 -44 -125 -107 -114 62 77 -114 -98 82 54 63 80 -74 74 117 -94 56 66 96 88 117 92 27 -85 -60 64 60 63 -70 98 -42 -29 -67 
-87 -94 108 -54 73 46 116 5 55 87 82 75 111 -80 83 -120 55 8 -97 -52 -10 -22 86 -14 -19 63 -51 -108 -40 -65 -78 -124 -28 -85 -36 -33 123 -99 59 119 1 26 -12 47 -25 -105 102 21 -11 -71 -90 -44 122 -85 -118 1 -52 -70 60 12 58 -27 113 62 
9 -62 82 18 -43 -97 95 -10 59 74 -81 11 -111 -72 -108 126 115 14 -76 -18 -15 -109 -69 29 -69 82 -71 17 -21 -69 -39 -88 26 88 44 4 -61 102 -105 3 -122 93 -113 -82 57 -68 -18 9 -114 57 29 7 2 32 -43 -126 -12 -49 120 90 77 23 101 73 
-30 56 90 45 26 -106 -69 -87 -59 -77 80 21 -27 47 -100 25 94 -22 -11 -30 -27 24 74 12 81 -117 91 71 18 -25 102 113 40 0 93 -44 -20 47 -65 105 118 -4 -103 77 -42 92 -80 43 -11 47 107 -27 -65 97 -12 -50 -116 78 128 -55 -104 -4 90 64 
80 -5 3 29 -10 105 -44 -54 -104 -27 -41 113 -69 35 -72 -69 18 -125 -50 8 -26 -8 60 7 8 -10 -112 -121 124 125 -108 105 66 -111 -111 87 30 43 120 72 61 -61 109 1 -54 -6 119 -38 -24 25 33 -62 -67 -13 113 8 90 -8 -15 -10 -30 -112 21 -17 
35 3 123 17 -34 -113 81 95 -75 103 111 7 -23 -34 -11 -110 85 -115 108 73 -77 -30 -4 -112 47 -14 113 47 -118 -98 -63 31 -17 31 104 110 -33 -113 -69 17 -101 89 -45 -81 25 -89 -28 -80 -97 -124 -29 -93 -44 -59 75 -92 -105 85 -63 -24 -1 -29 58 -23 
21 -18 68 -23 102 113 77 118 35 58 -21 -58 -127 29 -100 -29 -57 89 -34 -1 -125 86 -48 -100 -10 75 -12 92 65 -19 -4 100 -95 12 -112 -27 -27 -104 66 18 -23 42 -3 124 24 -29 77 12 -21 10 -57 120 -65 -82 -44 -9 -63 105 -35 90 49 3 109 -8 
100 -49 80 -11 24 22 -26 -70 32 119 -128 9 -102 123 -90 120 -104 44 -38 3 57 65 125 -2 -118 25 -106 -10 -39 95 -52 38 29 -31 -71 46 35 -123 115 7 114 -102 23 -59 37 -52 39 56 28 51 -61 -54 -44 17 11 100 -119 -58 36 116 32 10 29 -92 
-39 -32 -75 -64 59 -66 66 -28 -75 -86 86 103 9 98 25 10 67 -115 0 68 -113 -50 0 -42 7 -115 -87 -11 13 -55 96 59 -85 -125 69 83 -62 -74 -77 -122 14 106 -115 120 27 88 46 -73 48 94 106 -36 24 123 -13 -51 -40 -17 -35 -71 -81 -127 14 116 
-101 8 38 -40 -49 -73 123 107 -30 96 33 -124 93 51 -27 4 94 -44 -46 10 -67 11 -94 -106 -51 38 -121 113 25 -2 -109 86 -33 10 -128 -35 60 -116 95 -124 125 63 74 110 5 -61 -23 -78 -48 28 115 85 -11 -27 -111 116 30 19 -66 -73 -8 100 -49 23 
-98 -46 -127 80 16 54 58 -37 -121 -14 49 -121 -76 -66 58 9 -88 -50 14 54 124 -126 78 50 128 27 -18 -67 -54 112 8 98 -3 52 -63 -102 119 -64 32 -6 -118 -111 14 -18 -27 99 -113 -46 -66 31 -112 -36 -45 -21 48 -112 -90 12 -118 -24 74 91 74 49 
-5 -68 38 -16 -71 72 -108 -114 -93 -54 -121 74 94 -127 115 28 112 -77 -54 17 -118 24 111 -22 99 8 3 16 -14 6 76 -105 105 122 77 97 2 108 74 -35 5 105 67 47 -118 125 41 51 77 -95 -42 -113 52 36 122 121 101 -127 -109 2 60 85 44 90 
-60 -26 90 27 -85 -2 53 -1 -106 44 -81 88 -107 115 -38 -18 -18 -58 21 -9 70 -5 49 11 40 116 42 -100 97 116 -23 -30 71 97 -14 122 20 -58 -105 -60 -39 122 13 -88 -123 59 15 -69 -55 -45 -97 103 -76 119 -71 123 54 98 -31 -52 -78 -83 88 87 
70 -48 -96 1 125 -112 -43 127 49 -99 16 -87 112 73 -62 25 51 37 72 -46 -34 41 -122 112 83 94 -2 14 67 68 -20 -19 -103 -26 85 -51 -90 -44 -87 66 -128 -79 -68 99 -62 35 102 -59 -33 -112 -36 2 78 -18 -21 83 -92 85 -50 116 89 -112 46 101 
-74 -69 -88 -88 67 57 -105 -91 72 123 127 -99 92 -68 19 32 0 -11 29 -66 28 -122 -118 109 -56 12 70 -91 -37 116 -55 -84 45 -67 -83 -17 -114 -14 -101 -74 48 74 -25 -97 -79 -77 58 88 51 -78 125 -12 0 75 -98 39 -83 -33 -83 117 81 106 -39 -38 
10 -74 -90 -124 126 -111 7 -72 -52 28 26 125 -84 -57 86 -35 -32 -110 46 -48 -75 -9 97 125 95 -70 32 50 -80 50 34 43 103 -17 -16 32 21 58 21 108 -27 126 36 92 -45 121 63 113 53 -106 33 35 -12 83 -33 68 52 100 -92 111 -30 -89 5 48 
-88 -122 -2 -112 119 -1 -12 24 -54 2 55 -77 80 -56 1 -29 -51 38 -36 100 77 9 -74 35 48 -41 -118 -46 -59 18 -70 -91 50 119 128 -27 108 61 64 48 -15 52 -69 77 -56 -93 29 26 38 67 -7 -106 120 -27 25 109 75 101 54 -94 -32 21 95 -114 
-50 -89 70 82 85 -114 56 3 -16 -69 -71 -45 -9 -92 76 -51 -78 -76 117 -77 39 -125 -83 -2 62 -5 25 -91 -75 -47 29 124 49 -24 -106 4 14 41 -125 -68 109 -50 6 -65 104 6 -17 -24 -52 -65 15 -128 -6 11 104 -29 -114 1 23 -119 -40 58 -84 -67 
-101 -57 90 68 86 12 -12 56 110 57 -86 -62 -67 16 -13 -91 10 77 52 107 124 -24 72 -81 43 108 37 -81 69 -104 127 -102 -43 -3 -87 89 -99 -31 34 -52 -67 -40 43 30 14 -9 -14 88 89 -94 69 -53 -17 -87 -127 103 -22 97 -26 -113 -55 -114 15 116 
-109 -24 -22 -127 87 -57 -85 -108 -73 -105 -20 -54 -22 51 -32 30 64 79 28 -109 30 28 -85 46 44 75 75 -44 3 -75 120 -98 41 102 37 54 40 122 117 94 70 -84 73 -98 19 -38 20 -48 -107 112 -40 113 41 33 46 -117 116 -19 47 118 -43 76 -25 70 
118 -115 8 125 62 -111 -51 -126 50 -47 115 3 -56 30 49 -30 115 -54 4 -91 84 -16 -89 50 -128 -25 114 8 -58 -126 -45 86 -48 19 36 -56 55 -105 -128 102 -25 7 73 -105 89 96 -118 22 -107 -64 64 -45 86 -16 -116 -22 28 -87 51 -37 -128 10 1 -106 
40 99 -40 86 -43 -39 65 8 69 -124 -123 -20 67 -61 95 -60 -93 54 88 -83 85 34 -127 34 107 -69 9 -35 39 45 -16 30 -116 51 31 -8 -18 -57 31 49 -4 -86 -71 108 106 -12 -54 6 35 56 -72 -39 -87 0 -90 27 92 -13 -112 80 -62 57 -56 115 
59 73 73 -84 34 116 99 55 -76 -32 -124 73 -90 73 89 -44 10 -104 -97 57 41 96 66 93 63 126 -51 119 -71 -46 69 83 -33 123 -15 53 79 -105 -27 126 -85 -108 -120 93 29 -110 -54 45 -2 99 99 69 -10 70 17 49 -27 -70 40 -113 71 47 29 -3 
121 105 47 -11 47 48 -59 20 39 -73 -66 76 -24 13 47 108 -84 61 -68 -14 -76 -101 61 34 101 -122 -116 74 -97 116 52 -86 21 96 -21 79 -85 104 -26 -109 15 -82 -61 97 -113 -126 69 -7 -94 9 121 -91 -30 -99 55 -86 50 -97 -39 88 38 -89 55 -115 
-1 21 61 6 45 -90 110 76 -77 -22 -82 115 6 -17 30 113 115 128 109 -72 -92 27 -105 64 116 1 0 -64 -60 -64 -96 17 -122 -56 114 -37 1 -17 -113 30 -56 -18 42 -91 88 -37 53 -4 -19 120 72 -61 117 99 -108 70 -91 70 -63 79 -125 98 113 100 
107 -5 -44 41 -82 -28 -47 -89 -65 -9 -80 -77 -42 86 -120 104 16 91 -46 -116 34 -109 68 38 -99 114 -27 128 42 -30 66 -128 60 12 -93 -9 -48 -46 17 112 -6 -76 25 -114 -31 56 74 27 48 -37 46 -1 93 -85 40 -102 80 -28 112 121 100 102 39 90 
-61 -31 -22 -79 -29 54 26 -2 -88 58 -78 50 -106 -113 72 92 77 49 3 -120 -41 128 -45 -60 -96 -2 1 123 -97 -59 92 103 71 68 -5 -25 -122 123 -128 36 2 -71 39 1 -126 59 103 -85 -44 90 -89 111 -69 -107 -6 -100 96 55 112 -104 -87 -32 52 107 
94 -58 9 -98 -33 -74 79 -112 6 49 -10 125 -77 13 9 -8 43 -13 81 -52 96 -117 75 126 61 -83 -35 -1 10 37 -123 -119 69 46 68 3 4 42 65 -9 79 -23 -71 75 113 -23 20 -71 28 -110 -91 16 -57 23 5 -122 74 18 -102 -48 39 -24 -68 115 
-120 -84 -51 8 102 51 -18 13 117 7 -112 -33 -33 -90 2 10 -121 79 35 -40 -90 -124 38 61 125 119 70 39 -75 57 67 78 -100 -118 35 50 -82 -45 47 -70 15 45 -76 -30 -113 46 83 -27 55 -77 108 51 -72 15 19 8 116 -66 -35 -79 67 58 88 -103 
107 80 -110 -93 125 112 -45 21 60 10 -35 -79 -74 30 56 -76 101 -125 82 -51 90 -45 -22 104 -76 -31 -68 76 -6 4 40 81 -102 -9 124 -93 -7 106 20 40 -54 62 71 -10 62 -119 88 -121 87 -1 11 -48 70 122 94 67 -55 -72 53 -2 1 -81 -85 -100 
-21 103 -79 23 95 108 54 110 98 28 -53 -97 -73 -124 61 -115 -53 -105 110 56 86 -13 -111 -1 -63 -69 61 61 -22 13 121 64 -15 -59 -74 35 -53 -119 -104 -8 -46 97 -124 90 15 58 -10 68 2 13 -91 -83 -47 -32 -128 30 -101 28 -28 -56 19 127 -4 86 
48 66 51 82 -67 -118 -30 -7 71 -75 11 27 36 84 56 8 -33 69 25 105 12 90 32 18 26 -23 90 32 64 -55 13 32 58 -121 83 -16 -88 -122 -121 51 -35 -97 -90 -115 -107 -36 34 36 53 123 30 -109 36 126 -51 55 -106 -24 16 28 -8 -122 38 24 
-117 123 61 -107 69 10 87 -43 43 -92 -100 -34 -126 -108 -57 -32 93 65 -99 -40 26 120 3 -68 85 102 -16 -34 112 -87 -35 -87 -52 -60 -126 -107 43 -63 -38 -90 39 -127 -116 53 -68 -15 19 -25 101 -113 20 15 -117 -69 -7 -89 40 -72 69 95 -124 -125 -122 56 
-12 52 -84 39 -31 -1 83 -50 -112 -113 51 96 51 107 -92 96 -76 97 -114 104 -104 -26 124 -87 53 91 77 -25 123 52 0 89 -69 -31 -96 32 -91 -31 122 -121 74 100 -51 7 1 71 121 -47 22 -61 46 -39 39 -111 11 -56 -3 -34 45 -31 -98 108 -47 -116 
-52 18 70 -70 -115 -14 -110 53 -59 40 64 58 -17 -23 -11 104 5 66 -10 10 -120 100 29 76 -86 -79 115 -107 56 -55 -29 -14 41 -28 -89 87 48 68 -2 -22 -119 80 -91 57 -23 17 126 37 58 -69 -32 25 121 124 -95 63 62 -106 -43 -116 -83 -12 -104 105 
-71 38 -19 -4 107 89 56 -69 20 -110 -76 -5 -122 66 120 -118 -51 94 106 7 -75 104 -98 36 -84 -6 -119 36 99 6 -34 63 36 28 51 -19 -17 -6 123 -116 103 -47 -112 19 -15 3 -71 28 -2 -19 -81 86 -100 124 9 17 82 -64 65 38 -95 72 -89 29 
13 -103 -25 0 49 41 73 47 44 116 13 -93 -126 38 -80 108 -56 -73 -118 -113 79 122 -29 79 -3 -68 57 125 -67 -3 -100 -1 -75 -13 -48 80 -76 75 -49 31 -30 109 -94 17 -80 118 65 51 115 -36 -107 -33 -57 34 -110 97 -38 -34 -115 -94 119 -118 -26 99 
24 46 -31 -46 79 -89 103 69 119 81 -119 70 -81 109 109 26 -26 111 25 120 -9 21 -123 -41 -100 -114 107 -64 -43 31 -9 -112 16 -35 86 71 -102 78 -108 101 -76 -2 20 56 124 61 -94 34 22 -2 -89 -90 -62 -107 58 113 79 -11 22 106 -25 105 -8 113 
96 78 41 -68 -70 31 -89 114 52 -93 18 49 88 18 117 75 -2 84 -99 25 -113 68 -54 122 85 86 28 115 -60 -47 57 89 -110 121 -107 88 -27 -99 -120 -24 -47 -103 -78 102 110 115 -81 8 85 104 77 11 77 41 88 33 34 -109 -16 38 -65 37 20 74 
11 110 113 -89 51 -108 97 46 18 103 -77 -22 95 -105 -32 -21 -93 27 -11 61 82 96 118 2 81 80 96 -14 -76 -53 -103 60 114 -53 -80 63 -109 22 9 -95 15 66 69 119 -79 -102 -66 -80 -26 10 11 -117 40 1 -66 126 58 -78 122 -7 -95 -76 91 -57 
37 117 -110 17 27 -79 43 98 -5 -92 103 123 -56 -67 -73 -15 -16 37 -14 11 122 22 -47 -13 -73 57 -43 -68 1 -59 -49 91 96 46 22 -94 -28 99 13 36 -22 -13 -83 65 -98 128 -82 43 -80 90 -72 103 118 6 -20 -67 -114 122 112 -116 -42 -26 86 59 
-3 91 23 67 -42 -18 -64 110 -84 -36 46 -115 -112 -54 58 -56 12 -100 -75 85 126 -101 42 119 95 -9 94 54 -14 122 -62 -60 -101 -1 -22 -21 110 -41 24 -41 -36 115 -102 -106 -51 91 -81 45 43 -50 -66 -4 85 106 1 -47 -85 -71 23 -47 104 126 -61 -124 
-23 65 -23 104 -8 -111 -63 -78 51 -28 118 53 -109 -13 -34 -36 -97 22 104 -12 40 60 -62 -35 -44 12 -108 25 24 108 30 69 -117 98 -66 53 7 -63 -58 -78 17 -110 -40 -60 99 109 -9 105 -99 48 -120 31 27 24 -61 -111 -75 108 72 12 104 118 76 -97 
-17 38 -113 -5 -112 -109 72 -78 -89 127 125 34 54 -75 -15 -29 -36 -54 -53 -4 19 -23 3 -48 -10 58 -95 74 3 -107 -71 -101 8 -46 -110 126 -128 47 47 120 -64 -126 72 -84 75 -41 -87 -83 -3 68 -45 63 51 -113 -48 -55 49 -22 78 22 -27 37 -73 122 
-82 12 -41 49 -35 -35 -51 -53 95 29 5 61 -60 104 -48 -72 16 -22 45 112 1 -8 91 68 118 -20 -123 -1 -3 -14 91 -70 95 -18 -104 11 118 74 -18 -59 -29 -124 122 124 -19 -106 -14 -102 -86 81 -116 54 66 127 42 54 -50 102 -106 -39 -34 -83 54 -65 
-31 -14 31 -34 -22 91 -47 19 70 -48 104 -60 -36 24 -84 -5 -108 97 -92 119 54 -36 -72 125 67 -80 74 28 18 33 -55 90 -37 42 101 -109 -33 125 -53 49 -120 74 57 -98 62 120 -78 -98 -44 82 12 -6 -121 114 77 -24 25 45 20 1 -121 -31 85 41 
-40 103 -47 125 -37 50 72 -74 0 89 -118 72 44 104 99 86 -108 -94 -54 11 16 93 -9 72 -83 110 52 110 -40 -122 55 -115 -74 -34 105 95 63 -78 -42 -8 -8 -60 117 78 -127 71 7 58 60 -99 -20 -39 -25 95 -63 64 12 57 -38 7 -104 34 -34 116 
85 -45 -66 -62 44 65 55 98 -78 126 -6 -70 3 128 64 10 -47 64 42 0 -75 -14 -75 -79 77 81 -92 41 99 -89 59 -97 -7 3 65 -93 -88 35 -24 -49 -27 18 -82 109 105 73 -99 -120 116 63 89 26 -33 -25 -38 0 -30 93 -100 54 29 2 -29 123 
-112 -92 -45 -14 75 -97 -48 34 -12 115 82 83 -84 54 4 52 -78 -72 -84 -81 -108 64 -92 118 -70 -106 -20 50 -117 7 87 10 -16 111 43 72 109 -67 -39 39 -93 35 66 -75 92 -6 -53 -123 -27 87 14 -79 -57 83 48 47 -123 -10 -95 -90 97 2 -71 126 
26 -58 -79 -118 -90 52 -83 81 14 -13 -73 42 -121 36 103 127 -101 90 108 13 -113 10 -12 -117 23 115 17 -30 107 -100 29 -99 75 -91 -51 67 -76 54 33 -21 41 44 69 -90 -79 -39 75 60 -21 99 69 -69 74 49 -100 -22 -61 -117 106 52 -114 -113 90 -97 
-47 -123 -61 -86 -11 -16 -46 50 23 -121 124 21 -9 122 86 68 25 45 17 124 43 -6 -104 14 24 -13 -100 -6 119 -3 -61 -89 97 -47 128 -48 98 72 -128 -102 -47 95 95 86 -126 -96 51 12 72 112 -67 -76 -76 -16 61 -17 91 -106 -22 89 -48 -35 31 -120 
-34 -72 -14 -51 -118 124 -112 -106 -79 125 37 81 -78 -55 45 -62 -65 97 99 -35 -15 125 77 -86 -29 74 -41 -108 -33 4 84 -21 26 52 53 -18 -49 -76 -95 -115 5 10 120 19 26 -81 -58 41 5 -76 123 82 75 -52 123 87 -53 -11 -46 -98 -53 84 -127 -37 
18 22 124 111 26 -119 92 -115 91 120 -118 -101 55 3 -96 11 113 10 -88 29 85 -114 -96 -64 -77 -42 -92 -76 103 104 114 33 -36 9 12 89 -29 -104 15 -19 125 -98 10 48 78 113 -12 78 -38 28 -54 -29 -5 72 92 50 -55 -49 -109 35 128 111 -113 -6 
-93 -86 51 94 126 22 13 -120 -65 52 102 21 23 13 121 -35 -38 -38 -24 -15 -74 69 103 48 8 -93 104 -122 -13 2 -112 -117 -68 41 101 -35 41 122 126 -27 -19 81 67 78 -76 -92 65 80 27 -57 -6 1 -50 -66 -13 -107 -71 -86 99 -23 -45 -38 41 -117 
83 105 96 -68 113 -125 84 15 112 49 -12 -110 -49 -94 86 -117 -79 50 -48 24 -111 42 46 -25 -122 48 32 -89 46 23 -84 27 -22 -40 -83 -79 70 -92 26 -110 -90 106 -34 -56 -94 122 -65 -30 -23 -35 83 -29 -114 45 18 6 104 5 114 -67 -15 -12 127 123 
-100 116 83 -100 14 16 -80 42 79 -119 -61 -70 8 -121 14 -83 -82 -20 6 -29 -72 72 -55 90 -93 -126 -124 -80 -85 -35 101 116 -123 100 -18 -10 -91 61 101 48 15 119 -117 81 -105 48 86 -8 -74 39 41 12 40 -68 -28 27 57 -66 46 -96 18 41 10 -18 
74 62 68 112 -55 -81 107 96 81 -79 -78 -55 -1 -28 -64 -34 55 7 64 -36 -26 -82 -22 -40 -114 -6 -77 126 81 7 89 -52 -3 55 121 128 59 -56 65 -75 60 68 48 5 -89 -33 -58 89 120 -102 65 17 -68 67 56 72 -27 0 -5 54 105 38 -6 -88 
-114 41 -13 -26 -125 -94 46 -81 56 58 8 99 51 101 53 103 26 97 -108 5 107 110 -62 40 12 123 -115 74 80 87 95 35 0 109 54 47 10 -78 -88 -108 107 23 -65 30 39 31 92 -6 -20 29 88 23 104 47 -58 -25 -46 85 106 -43 3 -32 -75 116 
15 -60 19 40 88 41 -14 48 -8 -21 -39 7 32 117 47 80 12 3 29 44 68 -31 45 -61 -69 117 -65 10 122 9 98 -110 -64 -53 66 -96 84 -113 85 95 111 -82 95 23 -61 112 29 31 -115 -115 -50 125 4 13 11 41 -23 -102 -68 -78 32 46 11 -95 
-127 12 -2 -1 74 -74 -81 110 33 113 78 -115 93 94 -87 91 -101 93 -95 -74 83 -60 -120 -61 -19 47 7 79 -66 -7 -62 -50 -116 -106 87 29 -3 -111 -81 85 -22 54 29 -28 60 85 -90 -86 -107 15 98 -9 40 34 125 -84 -96 13 3 -21 16 105 -120 109 
-45 123 108 84 -23 12 -91 73 47 -52 43 -44 1 48 69 63 94 -104 121 81 -70 23 99 112 96 46 126 -61 108 -62 115 75 83 31 76 -128 23 68 5 77 -122 39 37 110 -100 82 -105 101 16 73 -72 40 18 -6 41 -39 -37 89 -77 -71 4 5 -54 -79 
82 -45 -65 112 -68 -49 10 -27 93 28 3 45 0 87 29 -25 100 -86 122 -5 -70 53 -83 127 -91 65 -17 -13 13 94 107 14 -32 88 60 -2 104 54 -67 45 -89 61 101 57 -117 75 -21 -67 -102 107 114 44 71 -68 24 -113 128 -71 -114 119 -80 -121 -54 -44 
-104 109 56 -66 -17 -52 42 67 47 -96 -98 -74 78 -127 40 -99 -43 104 -109 14 21 93 -109 -96 43 -46 -93 -114 -10 1 -53 87 98 18 -10 -43 58 -33 83 -17 54 -70 -65 94 111 -90 40 -16 -104 -112 -105 40 9 -9 -3 -82 -54 -117 -128 107 -108 31 83 51 
123 30 -88 -27 -82 -42 -23 -14 -29 -89 52 63 -119 -3 23 -92 98 -45 128 117 -61 64 -57 69 -70 87 51 88 105 -73 -64 44 -72 40 57 43 68 85 105 -102 89 122 89 -87 -32 -45 117 -19 110 39 -57 -66 56 -99 -105 113 98 -108 0 -14 77 115 -65 53 
95 -106 4 -109 -45 66 35 34 -97 12 -8 -4 76 79 -57 -118 -41 21 -70 -27 -110 12 97 -3 106 -95 83 101 -87 63 -26 -46 16 89 55 61 65 -4 31 78 -51 -55 -61 -40 12 -55 49 -116 91 25 27 113 -125 84 26 36 62 104 -79 26 117 56 26 59 
63 -74 -22 -70 -24 -104 -42 79 79 66 -37 -79 -98 -20 -52 -44 -56 -73 53 89 72 106 -89 -120 18 42 -19 -97 16 -34 50 -48 -121 20 -127 50 -88 -14 -69 -116 -36 114 27 -10 -79 85 -79 -1 99 94 -36 115 -77 -114 -70 68 -3 -51 -102 -12 93 -1 20 43 
81 -42 -49 2 -73 -113 122 93 -17 18 46 119 6 65 118 -14 -79 -61 -32 -4 -76 -17 -2 8 13 119 -6 30 43 42 62 -38 -54 80 106 -92 -92 9 -31 23 22 22 110 22 48 -10 128 -67 -102 -69 118 62 36 73 -110 -116 50 -65 -58 -97 111 -128 -115 -118 
4 -9 -75 74 -91 -114 -42 -82 -60 65 -110 57 125 -119 -59 -103 -100 3 52 -36 -6 -121 51 -1 14 -24 -31 -122 -92 107 -95 -79 -89 114 -56 -59 -79 -121 -66 -38 -63 -2 107 -5 74 69 29 -42 15 -93 -71 1 -125 -28 95 -9 71 -53 121 -102 115 120 33 -105 
67 23 -101 -101 -5 -102 -6 27 -50 -30 29 -40 98 6 -124 106 -80 -119 -83 82 -15 119 -38 94 7 -30 -124 71 -37 28 128 46 -34 -126 99 -33 -89 -13 -33 -47 -114 41 60 13 -29 69 -76 52 124 -46 -21 -70 84 10 30 29 -56 12 23 54 -53 102 116 -75 
-56 56 -127 -4 70 -15 35 -83 -76 -87 -80 -20 4 111 -56 51 98 -124 71 -44 -119 12 -5 -44 78 -101 16 15 94 -127 116 65 53 15 -4 -16 -24 -39 -61 -22 -79 67 45 12 -128 47 -70 127 85 128 31 90 83 86 52 -26 72 82 -21 -106 -87 127 -32 -65 
54 88 43 1 120 111 45 -127 72 106 -1 -90 44 -22 102 13 -9 -5 -85 -73 39 -125 87 -67 69 -43 -22 62 94 2 17 25 58 -35 8 112 -89 -49 -51 59 113 92 59 98 -44 -84 -57 -79 -69 -12 -120 96 -24 -62 -113 -124 -15 -105 -65 -93 -23 11 -4 81 
-115 121 113 -46 83 95 -68 14 -83 -126 -106 -75 -17 18 -41 60 19 98 -73 -61 33 -106 -27 -42 59 -102 -34 123 23 -60 -93 -4 55 -46 -116 61 -26 -113 -31 110 118 7 0 -48 -106 -72 116 105 15 24 -87 -16 73 -97 101 49 38 72 37 -19 -46 -44 43 98 
112 40 -80 -43 -124 -82 -72 63 63 37 114 14 38 83 -96 72 -40 -91 -16 55 -1 -11 -14 52 22 -123 32 -77 -99 84 -58 -101 37 99 20 -37 117 93 -54 87 108 -67 35 -73 107 -5 -89 14 113 -3 26 12 5 -98 76 -98 -64 96 77 94 12 -10 -74 93 
-8 85 11 111 -18 -98 52 -70 -2 -121 -31 58 93 62 -13 111 -93 -66 47 120 101 33 9 -72 -49 -113 63 100 114 113 -69 -91 49 -42 -71 -106 101 -79 -31 1 -103 -56 80 -75 -50 112 13 120 -71 56 71 59 55 -7 108 69 -26 2 -63 71 -63 -70 -51 -50 
52 26 64 -43 50 45 35 117 86 67 -77 78 50 122 121 -40 -87 -84 -3 -25 93 22 66 -98 14 -7 43 82 -50 39 -25 -107 70 -80 47 -121 125 -5 8 96 53 -46 79 -14 -67 -38 -25 -69 81 15 -60 27 -26 118 62 -12 114 -1 45 118 67 -50 104 83 
57 110 56 -10 -84 89 92 16 -39 122 -88 38 -78 -122 97 -44 81 -117 -30 99 125 -80 -105 118 -74 -29 -109 100 -38 -54 -128 101 -69 126 -107 62 -16 30 26 -88 -91 -10 -88 -91 108 -120 98 30 34 -23 -120 26 -67 -3 124 -45 -24 -73 54 -59 -123 -78 -29 -37 
-7 12 20 44 -82 99 -98 46 -70 -69 93 -55 98 -100 123 117 39 22 -40 24 13 81 -16 -77 86 -10 124 -123 -10 61 1 109 34 -121 18 -28 -17 -14 -102 -13 101 -83 98 105 -114 21 128 -33 -114 21 -20 27 65 -29 -104 -116 108 101 93 58 32 3 -53 36 
128 29 -69 29 37 -51 -125 16 116 77 -36 -2 -78 75 78 -73 37 56 -68 -109 0 -69 35 74 100 77 112 -61 59 -113 -52 0 16 128 -4 82 -99 -3 -28 -86 56 -79 -65 46 -69 -46 45 37 32 44 -61 104 128 54 43 -81 -117 -15 -77 -108 -20 116 21 37 
-67 -2 106 -40 44 121 70 -127 -30 -91 -39 -43 -58 8 -8 94 12 34 -109 34 -42 -65 -16 79 -76 9 39 25 -9 -126 14 67 -73 -105 -124 86 -7 -9 55 79 121 -115 3 111 -116 119 -108 -79 68 94 -115 95 -68 -120 86 -43 34 -46 121 -64 87 112 -55 9 
126 -90 85 0 -82 17 -110 -85 -40 -119 -4 116 7 95 -85 -40 125 -18 -52 -19 -77 -55 51 109 98 38 123 113 -66 4 28 -38 -48 -122 -104 -120 63 -75 -82 88 37 -99 113 111 -62 108 74 75 -69 -10 -21 23 91 41 -97 -76 13 -65 -88 70 -92 22 55 -116 
-126 -15 -101 100 -17 63 -121 -72 47 -112 40 -121 1 -126 101 55 -96 114 55 101 -96 -94 -74 92 21 17 -31 15 49 -111 3 -17 20 -49 75 29 -125 37 -105 -86 -41 -105 88 8 -62 11 95 76 -65 125 124 115 -66 -36 -85 62 -32 -112 -34 7 -115 113 -51 -14 
101 -69 74 55 42 -28 87 5 63 77 -102 108 -104 102 9 50 118 -92 -2 57 77 99 -93 -42 -112 -49 121 97 -92 -24 108 -66 50 -43 128 71 -13 121 -54 33 77 2 60 -77 65 -62 -93 -85 -16 89 16 1 112 -106 -47 24 -66 88 -32 117 -111 -48 50 105 
-29 -36 47 127 21 -2 116 -19 82 43 -49 -12 24 37 -97 -106 109 -5 -82 72 -76 53 -58 103 13 -22 -19 -54 16 94 17 92 15 -107 71 24 -101 6 -101 -40 -87 125 93 -38 -121 -67 -115 31 121 -9 41 19 -105 111 127 78 12 72 38 105 116 55 -25 55 
